## LambdaMART
## No. of trees = 100
## No. of leaves = 10
## No. of threshold candidates = 256
## Learning rate = 0.1
## Stop early = 100

<ensemble>
	<tree id="1" weight="0.1">
		<split>
			<feature> 21 </feature>
			<threshold> 18.699175 </threshold>
			<split pos="left">
				<feature> 1 </feature>
				<threshold> 2.4637454 </threshold>
				<split pos="left">
					<feature> 21 </feature>
					<threshold> 14.959338 </threshold>
					<split pos="left">
						<output> -0.6867481 </output>
					</split>
					<split pos="right">
						<output> 1.1768245 </output>
					</split>
				</split>
				<split pos="right">
					<output> 1.9929612 </output>
				</split>
			</split>
			<split pos="right">
				<feature> 15 </feature>
				<threshold> 31.052687 </threshold>
				<split pos="left">
					<feature> 17 </feature>
					<threshold> 12.7957115 </threshold>
					<split pos="left">
						<output> -0.20278937 </output>
					</split>
					<split pos="right">
						<feature> 15 </feature>
						<threshold> 14.931704 </threshold>
						<split pos="left">
							<output> 1.9266951 </output>
						</split>
						<split pos="right">
							<feature> 21 </feature>
							<threshold> 80.406494 </threshold>
							<split pos="left">
								<feature> 23 </feature>
								<threshold> 85.85308 </threshold>
								<split pos="left">
									<feature> 21 </feature>
									<threshold> 38.33332 </threshold>
									<split pos="left">
										<output> 1.7017492 </output>
									</split>
									<split pos="right">
										<output> -0.7666539 </output>
									</split>
								</split>
								<split pos="right">
									<output> 2.0 </output>
								</split>
							</split>
							<split pos="right">
								<output> -2.0 </output>
							</split>
						</split>
					</split>
				</split>
				<split pos="right">
					<output> 2.0 </output>
				</split>
			</split>
		</split>
	</tree>
	<tree id="2" weight="0.1">
		<split>
			<feature> 21 </feature>
			<threshold> 18.699175 </threshold>
			<split pos="left">
				<feature> 1 </feature>
				<threshold> 2.4637454 </threshold>
				<split pos="left">
					<feature> 21 </feature>
					<threshold> 14.959338 </threshold>
					<split pos="left">
						<feature> 21 </feature>
						<threshold> 10.284546 </threshold>
						<split pos="left">
							<output> -1.1943694 </output>
						</split>
						<split pos="right">
							<output> 0.6596787 </output>
						</split>
					</split>
					<split pos="right">
						<output> 1.0066159 </output>
					</split>
				</split>
				<split pos="right">
					<output> 1.7319524 </output>
				</split>
			</split>
			<split pos="right">
				<feature> 15 </feature>
				<threshold> 31.052687 </threshold>
				<split pos="left">
					<feature> 17 </feature>
					<threshold> 13.056849 </threshold>
					<split pos="left">
						<output> 0.18102287 </output>
					</split>
					<split pos="right">
						<feature> 15 </feature>
						<threshold> 14.931704 </threshold>
						<split pos="left">
							<output> 1.7473104 </output>
						</split>
						<split pos="right">
							<feature> 3 </feature>
							<threshold> 1.6621685 </threshold>
							<split pos="left">
								<output> 1.725947 </output>
							</split>
							<split pos="right">
								<feature> 9 </feature>
								<threshold> 8867927.0 </threshold>
								<split pos="left">
									<output> 1.3083111 </output>
								</split>
								<split pos="right">
									<output> 1.6692888 </output>
								</split>
							</split>
						</split>
					</split>
				</split>
				<split pos="right">
					<output> 1.7738565 </output>
				</split>
			</split>
		</split>
	</tree>
	<tree id="3" weight="0.1">
		<split>
			<feature> 21 </feature>
			<threshold> 18.699175 </threshold>
			<split pos="left">
				<feature> 1 </feature>
				<threshold> 2.4637454 </threshold>
				<split pos="left">
					<feature> 21 </feature>
					<threshold> 14.959338 </threshold>
					<split pos="left">
						<feature> 1 </feature>
						<threshold> 1.8918054 </threshold>
						<split pos="left">
							<feature> 17 </feature>
							<threshold> 22.327166 </threshold>
							<split pos="left">
								<feature> 21 </feature>
								<threshold> 10.284546 </threshold>
								<split pos="left">
									<output> -1.0324625 </output>
								</split>
								<split pos="right">
									<output> 0.42469808 </output>
								</split>
							</split>
							<split pos="right">
								<output> 1.8353739 </output>
							</split>
						</split>
						<split pos="right">
							<output> 1.2410694 </output>
						</split>
					</split>
					<split pos="right">
						<feature> 6 </feature>
						<threshold> 477605.34 </threshold>
						<split pos="left">
							<output> 0.62367886 </output>
						</split>
						<split pos="right">
							<output> 1.4070421 </output>
						</split>
					</split>
				</split>
				<split pos="right">
					<output> 1.585026 </output>
				</split>
			</split>
			<split pos="right">
				<feature> 11 </feature>
				<threshold> 6274249.0 </threshold>
				<split pos="left">
					<output> 1.1459084 </output>
				</split>
				<split pos="right">
					<feature> 28 </feature>
					<threshold> 2.2656248 </threshold>
					<split pos="left">
						<output> 1.2467173 </output>
					</split>
					<split pos="right">
						<output> 1.5967581 </output>
					</split>
				</split>
			</split>
		</split>
	</tree>
	<tree id="4" weight="0.1">
		<split>
			<feature> 21 </feature>
			<threshold> 18.699175 </threshold>
			<split pos="left">
				<feature> 1 </feature>
				<threshold> 2.3904197 </threshold>
				<split pos="left">
					<feature> 21 </feature>
					<threshold> 14.959338 </threshold>
					<split pos="left">
						<feature> 1 </feature>
						<threshold> 1.8918054 </threshold>
						<split pos="left">
							<feature> 17 </feature>
							<threshold> 22.327166 </threshold>
							<split pos="left">
								<feature> 1 </feature>
								<threshold> 1.2025445 </threshold>
								<split pos="left">
									<output> -0.98583204 </output>
								</split>
								<split pos="right">
									<output> 0.2208078 </output>
								</split>
							</split>
							<split pos="right">
								<output> 1.6298586 </output>
							</split>
						</split>
						<split pos="right">
							<output> 1.0736866 </output>
						</split>
					</split>
					<split pos="right">
						<feature> 6 </feature>
						<threshold> 477605.34 </threshold>
						<split pos="left">
							<output> 0.5087126 </output>
						</split>
						<split pos="right">
							<output> 1.2088821 </output>
						</split>
					</split>
				</split>
				<split pos="right">
					<output> 1.4905916 </output>
				</split>
			</split>
			<split pos="right">
				<feature> 11 </feature>
				<threshold> 6274249.0 </threshold>
				<split pos="left">
					<output> 0.9694121 </output>
				</split>
				<split pos="right">
					<feature> 28 </feature>
					<threshold> 2.2656248 </threshold>
					<split pos="left">
						<output> 1.090128 </output>
					</split>
					<split pos="right">
						<output> 1.4718022 </output>
					</split>
				</split>
			</split>
		</split>
	</tree>
	<tree id="5" weight="0.1">
		<split>
			<feature> 21 </feature>
			<threshold> 18.699175 </threshold>
			<split pos="left">
				<feature> 1 </feature>
				<threshold> 2.3904197 </threshold>
				<split pos="left">
					<feature> 21 </feature>
					<threshold> 14.959338 </threshold>
					<split pos="left">
						<feature> 17 </feature>
						<threshold> 22.327166 </threshold>
						<split pos="left">
							<feature> 1 </feature>
							<threshold> 1.965131 </threshold>
							<split pos="left">
								<feature> 21 </feature>
								<threshold> 10.284546 </threshold>
								<split pos="left">
									<output> -0.8148918 </output>
								</split>
								<split pos="right">
									<output> 0.32081422 </output>
								</split>
							</split>
							<split pos="right">
								<output> 1.0378555 </output>
							</split>
						</split>
						<split pos="right">
							<output> 1.4862761 </output>
						</split>
					</split>
					<split pos="right">
						<feature> 6 </feature>
						<threshold> 477605.34 </threshold>
						<split pos="left">
							<output> 0.3986397 </output>
						</split>
						<split pos="right">
							<output> 1.0998613 </output>
						</split>
					</split>
				</split>
				<split pos="right">
					<output> 1.4059196 </output>
				</split>
			</split>
			<split pos="right">
				<feature> 11 </feature>
				<threshold> 6274249.0 </threshold>
				<split pos="left">
					<output> 0.85699874 </output>
				</split>
				<split pos="right">
					<feature> 28 </feature>
					<threshold> 2.2656248 </threshold>
					<split pos="left">
						<output> 0.9852478 </output>
					</split>
					<split pos="right">
						<output> 1.3804525 </output>
					</split>
				</split>
			</split>
		</split>
	</tree>
	<tree id="6" weight="0.1">
		<split>
			<feature> 1 </feature>
			<threshold> 2.302429 </threshold>
			<split pos="left">
				<feature> 21 </feature>
				<threshold> 18.699175 </threshold>
				<split pos="left">
					<feature> 21 </feature>
					<threshold> 14.959338 </threshold>
					<split pos="left">
						<feature> 17 </feature>
						<threshold> 22.327166 </threshold>
						<split pos="left">
							<feature> 1 </feature>
							<threshold> 1.8918054 </threshold>
							<split pos="left">
								<feature> 33 </feature>
								<threshold> 0.9996132 </threshold>
								<split pos="left">
									<output> 0.09732986 </output>
								</split>
								<split pos="right">
									<output> -0.80302286 </output>
								</split>
							</split>
							<split pos="right">
								<output> 0.85707104 </output>
							</split>
						</split>
						<split pos="right">
							<output> 1.3884877 </output>
						</split>
					</split>
					<split pos="right">
						<feature> 6 </feature>
						<threshold> 477605.34 </threshold>
						<split pos="left">
							<output> 0.34272948 </output>
						</split>
						<split pos="right">
							<output> 0.9739643 </output>
						</split>
					</split>
				</split>
				<split pos="right">
					<feature> 33 </feature>
					<threshold> 0.9953351 </threshold>
					<split pos="left">
						<feature> 17 </feature>
						<threshold> 19.846382 </threshold>
						<split pos="left">
							<output> 0.65938354 </output>
						</split>
						<split pos="right">
							<output> 1.2281581 </output>
						</split>
					</split>
					<split pos="right">
						<output> 0.12581299 </output>
					</split>
				</split>
			</split>
			<split pos="right">
				<output> 1.2308598 </output>
			</split>
		</split>
	</tree>
	<tree id="7" weight="0.1">
		<split>
			<feature> 1 </feature>
			<threshold> 2.302429 </threshold>
			<split pos="left">
				<feature> 21 </feature>
				<threshold> 18.699175 </threshold>
				<split pos="left">
					<feature> 21 </feature>
					<threshold> 13.089421 </threshold>
					<split pos="left">
						<feature> 1 </feature>
						<threshold> 1.9504659 </threshold>
						<split pos="left">
							<feature> 33 </feature>
							<threshold> 0.9996132 </threshold>
							<split pos="left">
								<output> 0.15538369 </output>
							</split>
							<split pos="right">
								<output> -0.80325073 </output>
							</split>
						</split>
						<split pos="right">
							<output> 1.3874093 </output>
						</split>
					</split>
					<split pos="right">
						<feature> 3 </feature>
						<threshold> 1.255467 </threshold>
						<split pos="left">
							<output> 1.0374516 </output>
						</split>
						<split pos="right">
							<feature> 27 </feature>
							<threshold> 5.297258 </threshold>
							<split pos="left">
								<output> -3.093429 </output>
							</split>
							<split pos="right">
								<feature> 15 </feature>
								<threshold> 11.231806 </threshold>
								<split pos="left">
									<output> 1.3013636 </output>
								</split>
								<split pos="right">
									<output> 0.4467435 </output>
								</split>
							</split>
						</split>
					</split>
				</split>
				<split pos="right">
					<feature> 17 </feature>
					<threshold> 19.846382 </threshold>
					<split pos="left">
						<output> 0.36442724 </output>
					</split>
					<split pos="right">
						<output> 1.1084222 </output>
					</split>
				</split>
			</split>
			<split pos="right">
				<output> 1.1319146 </output>
			</split>
		</split>
	</tree>
	<tree id="8" weight="0.1">
		<split>
			<feature> 1 </feature>
			<threshold> 2.302429 </threshold>
			<split pos="left">
				<feature> 23 </feature>
				<threshold> 17.839602 </threshold>
				<split pos="left">
					<feature> 21 </feature>
					<threshold> 10.284546 </threshold>
					<split pos="left">
						<output> -0.6318321 </output>
					</split>
					<split pos="right">
						<feature> 5 </feature>
						<threshold> 106360.23 </threshold>
						<split pos="left">
							<output> 1.0876628 </output>
						</split>
						<split pos="right">
							<feature> 17 </feature>
							<threshold> 22.196598 </threshold>
							<split pos="left">
								<feature> 15 </feature>
								<threshold> 11.231806 </threshold>
								<split pos="left">
									<output> -3.043262 </output>
								</split>
								<split pos="right">
									<output> 0.37217373 </output>
								</split>
							</split>
							<split pos="right">
								<output> 0.9807865 </output>
							</split>
						</split>
					</split>
				</split>
				<split pos="right">
					<feature> 26 </feature>
					<threshold> 0.0 </threshold>
					<split pos="left">
						<feature> 33 </feature>
						<threshold> 0.9953351 </threshold>
						<split pos="left">
							<feature> 25 </feature>
							<threshold> 0.0 </threshold>
							<split pos="left">
								<output> 0.85566777 </output>
							</split>
							<split pos="right">
								<output> -0.4175344 </output>
							</split>
						</split>
						<split pos="right">
							<output> -0.30801108 </output>
						</split>
					</split>
					<split pos="right">
						<output> 1.1061685 </output>
					</split>
				</split>
			</split>
			<split pos="right">
				<output> 1.077201 </output>
			</split>
		</split>
	</tree>
	<tree id="9" weight="0.1">
		<split>
			<feature> 1 </feature>
			<threshold> 2.302429 </threshold>
			<split pos="left">
				<feature> 21 </feature>
				<threshold> 18.699175 </threshold>
				<split pos="left">
					<feature> 1 </feature>
					<threshold> 1.3931911 </threshold>
					<split pos="left">
						<feature> 33 </feature>
						<threshold> 0.9998466 </threshold>
						<split pos="left">
							<output> 0.11577603 </output>
						</split>
						<split pos="right">
							<output> -0.7931153 </output>
						</split>
					</split>
					<split pos="right">
						<feature> 15 </feature>
						<threshold> 10.306831 </threshold>
						<split pos="left">
							<output> -2.1265762 </output>
						</split>
						<split pos="right">
							<feature> 15 </feature>
							<threshold> 11.099667 </threshold>
							<split pos="left">
								<output> 1.3989478 </output>
							</split>
							<split pos="right">
								<feature> 23 </feature>
								<threshold> 22.299501 </threshold>
								<split pos="left">
									<feature> 27 </feature>
									<threshold> 8.373904 </threshold>
									<split pos="left">
										<output> 0.27395475 </output>
									</split>
									<split pos="right">
										<output> 0.5464695 </output>
									</split>
								</split>
								<split pos="right">
									<output> -3.9130094 </output>
								</split>
							</split>
						</split>
					</split>
				</split>
				<split pos="right">
					<feature> 33 </feature>
					<threshold> 0.9953351 </threshold>
					<split pos="left">
						<output> 0.7152293 </output>
					</split>
					<split pos="right">
						<output> -0.26458278 </output>
					</split>
				</split>
			</split>
			<split pos="right">
				<output> 1.0035576 </output>
			</split>
		</split>
	</tree>
	<tree id="10" weight="0.1">
		<split>
			<feature> 1 </feature>
			<threshold> 2.302429 </threshold>
			<split pos="left">
				<feature> 21 </feature>
				<threshold> 18.699175 </threshold>
				<split pos="left">
					<feature> 21 </feature>
					<threshold> 10.284546 </threshold>
					<split pos="left">
						<output> -0.5137087 </output>
					</split>
					<split pos="right">
						<feature> 5 </feature>
						<threshold> 106360.23 </threshold>
						<split pos="left">
							<output> 0.9394657 </output>
						</split>
						<split pos="right">
							<feature> 17 </feature>
							<threshold> 22.196598 </threshold>
							<split pos="left">
								<feature> 1 </feature>
								<threshold> 2.1557777 </threshold>
								<split pos="left">
									<feature> 1 </feature>
									<threshold> 1.9797962 </threshold>
									<split pos="left">
										<feature> 23 </feature>
										<threshold> 18.954576 </threshold>
										<split pos="left">
											<output> 0.2876943 </output>
										</split>
										<split pos="right">
											<output> 0.39888012 </output>
										</split>
									</split>
									<split pos="right">
										<output> 0.6000581 </output>
									</split>
								</split>
								<split pos="right">
									<output> -1.5285107 </output>
								</split>
							</split>
							<split pos="right">
								<output> 0.7838863 </output>
							</split>
						</split>
					</split>
				</split>
				<split pos="right">
					<feature> 33 </feature>
					<threshold> 0.9953351 </threshold>
					<split pos="left">
						<output> 0.65033835 </output>
					</split>
					<split pos="right">
						<output> -0.4141378 </output>
					</split>
				</split>
			</split>
			<split pos="right">
				<output> 0.9471206 </output>
			</split>
		</split>
	</tree>
	<tree id="11" weight="0.1">
		<split>
			<feature> 1 </feature>
			<threshold> 2.302429 </threshold>
			<split pos="left">
				<feature> 17 </feature>
				<threshold> 23.11057 </threshold>
				<split pos="left">
					<feature> 1 </feature>
					<threshold> 1.3931911 </threshold>
					<split pos="left">
						<feature> 21 </feature>
						<threshold> 16.829256 </threshold>
						<split pos="left">
							<feature> 33 </feature>
							<threshold> 0.9998466 </threshold>
							<split pos="left">
								<output> 0.16742276 </output>
							</split>
							<split pos="right">
								<output> -0.70257056 </output>
							</split>
						</split>
						<split pos="right">
							<output> -2.8354077 </output>
						</split>
					</split>
					<split pos="right">
						<feature> 23 </feature>
						<threshold> 28.989351 </threshold>
						<split pos="left">
							<feature> 28 </feature>
							<threshold> 3.3984396 </threshold>
							<split pos="left">
								<feature> 15 </feature>
								<threshold> 11.099667 </threshold>
								<split pos="left">
									<output> 1.2528086 </output>
								</split>
								<split pos="right">
									<feature> 27 </feature>
									<threshold> 12.855135 </threshold>
									<split pos="left">
										<output> 0.2323796 </output>
									</split>
									<split pos="right">
										<output> -2.6568744 </output>
									</split>
								</split>
							</split>
							<split pos="right">
								<output> 0.69394535 </output>
							</split>
						</split>
						<split pos="right">
							<output> 0.47180626 </output>
						</split>
					</split>
				</split>
				<split pos="right">
					<output> 0.97028106 </output>
				</split>
			</split>
			<split pos="right">
				<output> 0.9039323 </output>
			</split>
		</split>
	</tree>
	<tree id="12" weight="0.1">
		<split>
			<feature> 1 </feature>
			<threshold> 2.302429 </threshold>
			<split pos="left">
				<feature> 17 </feature>
				<threshold> 23.11057 </threshold>
				<split pos="left">
					<feature> 21 </feature>
					<threshold> 76.66666 </threshold>
					<split pos="left">
						<feature> 23 </feature>
						<threshold> 28.989351 </threshold>
						<split pos="left">
							<feature> 33 </feature>
							<threshold> 0.9996132 </threshold>
							<split pos="left">
								<feature> 1 </feature>
								<threshold> 1.965131 </threshold>
								<split pos="left">
									<feature> 27 </feature>
									<threshold> 12.855135 </threshold>
									<split pos="left">
										<feature> 23 </feature>
										<threshold> 18.954576 </threshold>
										<split pos="left">
											<feature> 23 </feature>
											<threshold> 17.839602 </threshold>
											<split pos="left">
												<output> 0.2249526 </output>
											</split>
											<split pos="right">
												<output> -0.7425817 </output>
											</split>
										</split>
										<split pos="right">
											<output> 0.33785218 </output>
										</split>
									</split>
									<split pos="right">
										<output> -2.0837538 </output>
									</split>
								</split>
								<split pos="right">
									<output> 0.48659003 </output>
								</split>
							</split>
							<split pos="right">
								<output> -0.5446663 </output>
							</split>
						</split>
						<split pos="right">
							<output> 0.5462783 </output>
						</split>
					</split>
					<split pos="right">
						<output> -3.1597579 </output>
					</split>
				</split>
				<split pos="right">
					<output> 0.9305352 </output>
				</split>
			</split>
			<split pos="right">
				<output> 0.82218754 </output>
			</split>
		</split>
	</tree>
	<tree id="13" weight="0.1">
		<split>
			<feature> 1 </feature>
			<threshold> 2.302429 </threshold>
			<split pos="left">
				<feature> 17 </feature>
				<threshold> 23.11057 </threshold>
				<split pos="left">
					<feature> 23 </feature>
					<threshold> 28.989351 </threshold>
					<split pos="left">
						<feature> 1 </feature>
						<threshold> 1.2025445 </threshold>
						<split pos="left">
							<output> -0.47217458 </output>
						</split>
						<split pos="right">
							<feature> 28 </feature>
							<threshold> 2.7406762 </threshold>
							<split pos="left">
								<feature> 27 </feature>
								<threshold> 12.855135 </threshold>
								<split pos="left">
									<feature> 27 </feature>
									<threshold> 11.918758 </threshold>
									<split pos="left">
										<feature> 27 </feature>
										<threshold> 11.383686 </threshold>
										<split pos="left">
											<feature> 15 </feature>
											<threshold> 8.324743 </threshold>
											<split pos="left">
												<output> -2.9753115 </output>
											</split>
											<split pos="right">
												<output> 0.18070973 </output>
											</split>
										</split>
										<split pos="right">
											<output> -2.4571636 </output>
										</split>
									</split>
									<split pos="right">
										<output> 0.96571326 </output>
									</split>
								</split>
								<split pos="right">
									<output> -3.1753557 </output>
								</split>
							</split>
							<split pos="right">
								<output> 0.5516609 </output>
							</split>
						</split>
					</split>
					<split pos="right">
						<output> 0.3682862 </output>
					</split>
				</split>
				<split pos="right">
					<output> 0.891122 </output>
				</split>
			</split>
			<split pos="right">
				<output> 0.7722763 </output>
			</split>
		</split>
	</tree>
	<tree id="14" weight="0.1">
		<split>
			<feature> 1 </feature>
			<threshold> 2.4637454 </threshold>
			<split pos="left">
				<feature> 27 </feature>
				<threshold> 11.918758 </threshold>
				<split pos="left">
					<feature> 1 </feature>
					<threshold> 2.3904197 </threshold>
					<split pos="left">
						<feature> 21 </feature>
						<threshold> 17.764215 </threshold>
						<split pos="left">
							<feature> 1 </feature>
							<threshold> 2.317094 </threshold>
							<split pos="left">
								<feature> 33 </feature>
								<threshold> 0.9996132 </threshold>
								<split pos="left">
									<feature> 23 </feature>
									<threshold> 18.954576 </threshold>
									<split pos="left">
										<feature> 23 </feature>
										<threshold> 16.724627 </threshold>
										<split pos="left">
											<feature> 17 </feature>
											<threshold> 24.285679 </threshold>
											<split pos="left">
												<output> 0.2335053 </output>
											</split>
											<split pos="right">
												<output> 1.1827499 </output>
											</split>
										</split>
										<split pos="right">
											<output> -0.808679 </output>
										</split>
									</split>
									<split pos="right">
										<output> 0.47814927 </output>
									</split>
								</split>
								<split pos="right">
									<output> -0.5167175 </output>
								</split>
							</split>
							<split pos="right">
								<output> -3.4470954 </output>
							</split>
						</split>
						<split pos="right">
							<output> 0.3509727 </output>
						</split>
					</split>
					<split pos="right">
						<output> -3.138663 </output>
					</split>
				</split>
				<split pos="right">
					<output> 0.8070967 </output>
				</split>
			</split>
			<split pos="right">
				<output> 0.88354033 </output>
			</split>
		</split>
	</tree>
	<tree id="15" weight="0.1">
		<split>
			<feature> 1 </feature>
			<threshold> 1.9944613 </threshold>
			<split pos="left">
				<feature> 27 </feature>
				<threshold> 11.918758 </threshold>
				<split pos="left">
					<feature> 33 </feature>
					<threshold> 0.9800894 </threshold>
					<split pos="left">
						<output> 1.2645789 </output>
					</split>
					<split pos="right">
						<feature> 33 </feature>
						<threshold> 0.9996132 </threshold>
						<split pos="left">
							<feature> 23 </feature>
							<threshold> 23.414476 </threshold>
							<split pos="left">
								<feature> 6 </feature>
								<threshold> 1153041.4 </threshold>
								<split pos="left">
									<feature> 2 </feature>
									<threshold> 2.7062082 </threshold>
									<split pos="left">
										<feature> 22 </feature>
										<threshold> 13.387139 </threshold>
										<split pos="left">
											<feature> 21 </feature>
											<threshold> 14.959338 </threshold>
											<split pos="left">
												<output> 0.12154906 </output>
											</split>
											<split pos="right">
												<output> -0.37307966 </output>
											</split>
										</split>
										<split pos="right">
											<output> 1.1224843 </output>
										</split>
									</split>
									<split pos="right">
										<output> 0.54359007 </output>
									</split>
								</split>
								<split pos="right">
									<output> -4.0422707 </output>
								</split>
							</split>
							<split pos="right">
								<output> 0.36572117 </output>
							</split>
						</split>
						<split pos="right">
							<output> -0.51891226 </output>
						</split>
					</split>
				</split>
				<split pos="right">
					<output> 0.7070216 </output>
				</split>
			</split>
			<split pos="right">
				<output> 0.66257757 </output>
			</split>
		</split>
	</tree>
	<tree id="16" weight="0.1">
		<split>
			<feature> 1 </feature>
			<threshold> 1.9944613 </threshold>
			<split pos="left">
				<feature> 15 </feature>
				<threshold> 26.163536 </threshold>
				<split pos="left">
					<feature> 6 </feature>
					<threshold> 675436.0 </threshold>
					<split pos="left">
						<feature> 21 </feature>
						<threshold> 76.66666 </threshold>
						<split pos="left">
							<feature> 21 </feature>
							<threshold> 57.03251 </threshold>
							<split pos="left">
								<feature> 21 </feature>
								<threshold> 52.35771 </threshold>
								<split pos="left">
									<feature> 21 </feature>
									<threshold> 40.20324 </threshold>
									<split pos="left">
										<feature> 21 </feature>
										<threshold> 38.33332 </threshold>
										<split pos="left">
											<feature> 21 </feature>
											<threshold> 37.39836 </threshold>
											<split pos="left">
												<output> -0.12786785 </output>
											</split>
											<split pos="right">
												<output> 0.77409244 </output>
											</split>
										</split>
										<split pos="right">
											<output> -2.5203292 </output>
										</split>
									</split>
									<split pos="right">
										<output> 0.9560887 </output>
									</split>
								</split>
								<split pos="right">
									<output> -3.6550004 </output>
								</split>
							</split>
							<split pos="right">
								<output> 1.1564999 </output>
							</split>
						</split>
						<split pos="right">
							<output> -2.7554972 </output>
						</split>
					</split>
					<split pos="right">
						<output> 0.99281406 </output>
					</split>
				</split>
				<split pos="right">
					<output> 1.0753429 </output>
				</split>
			</split>
			<split pos="right">
				<output> 0.610867 </output>
			</split>
		</split>
	</tree>
	<tree id="17" weight="0.1">
		<split>
			<feature> 1 </feature>
			<threshold> 2.5224059 </threshold>
			<split pos="left">
				<feature> 6 </feature>
				<threshold> 955210.7 </threshold>
				<split pos="left">
					<feature> 1 </feature>
					<threshold> 1.9358008 </threshold>
					<split pos="left">
						<feature> 27 </feature>
						<threshold> 9.711585 </threshold>
						<split pos="left">
							<feature> 23 </feature>
							<threshold> 14.494676 </threshold>
							<split pos="left">
								<feature> 33 </feature>
								<threshold> 0.9996132 </threshold>
								<split pos="left">
									<feature> 29 </feature>
									<threshold> 8.396016 </threshold>
									<split pos="left">
										<feature> 21 </feature>
										<threshold> 14.02438 </threshold>
										<split pos="left">
											<feature> 2 </feature>
											<threshold> 4.822603 </threshold>
											<split pos="left">
												<output> 0.13496016 </output>
											</split>
											<split pos="right">
												<output> 0.6713197 </output>
											</split>
										</split>
										<split pos="right">
											<output> 0.91013247 </output>
										</split>
									</split>
									<split pos="right">
										<output> 0.68855864 </output>
									</split>
								</split>
								<split pos="right">
									<output> -0.46779594 </output>
								</split>
							</split>
							<split pos="right">
								<output> -0.28511107 </output>
							</split>
						</split>
						<split pos="right">
							<output> 0.42298806 </output>
						</split>
					</split>
					<split pos="right">
						<output> 0.38356644 </output>
					</split>
				</split>
				<split pos="right">
					<output> 0.9981641 </output>
				</split>
			</split>
			<split pos="right">
				<output> 0.8898094 </output>
			</split>
		</split>
	</tree>
	<tree id="18" weight="0.1">
		<split>
			<feature> 1 </feature>
			<threshold> 2.5224059 </threshold>
			<split pos="left">
				<feature> 6 </feature>
				<threshold> 955210.7 </threshold>
				<split pos="left">
					<feature> 27 </feature>
					<threshold> 9.310281 </threshold>
					<split pos="left">
						<feature> 1 </feature>
						<threshold> 2.317094 </threshold>
						<split pos="left">
							<feature> 33 </feature>
							<threshold> 0.9800894 </threshold>
							<split pos="left">
								<output> 1.2320817 </output>
							</split>
							<split pos="right">
								<feature> 3 </feature>
								<threshold> 3.0237274 </threshold>
								<split pos="left">
									<feature> 1 </feature>
									<threshold> 2.199773 </threshold>
									<split pos="left">
										<feature> 21 </feature>
										<threshold> 37.39836 </threshold>
										<split pos="left">
											<feature> 21 </feature>
											<threshold> 25.24389 </threshold>
											<split pos="left">
												<output> -0.14983608 </output>
											</split>
											<split pos="right">
												<output> -1.8839138 </output>
											</split>
										</split>
										<split pos="right">
											<output> 0.35069123 </output>
										</split>
									</split>
									<split pos="right">
										<output> 1.090861 </output>
									</split>
								</split>
								<split pos="right">
									<output> -4.2079115 </output>
								</split>
							</split>
						</split>
						<split pos="right">
							<output> -4.57294 </output>
						</split>
					</split>
					<split pos="right">
						<output> 0.3932209 </output>
					</split>
				</split>
				<split pos="right">
					<output> 0.8783515 </output>
				</split>
			</split>
			<split pos="right">
				<output> 0.8521054 </output>
			</split>
		</split>
	</tree>
	<tree id="19" weight="0.1">
		<split>
			<feature> 1 </feature>
			<threshold> 2.5224059 </threshold>
			<split pos="left">
				<feature> 1 </feature>
				<threshold> 1.9358008 </threshold>
				<split pos="left">
					<feature> 2 </feature>
					<threshold> 6.904312 </threshold>
					<split pos="left">
						<feature> 33 </feature>
						<threshold> 0.9996132 </threshold>
						<split pos="left">
							<feature> 23 </feature>
							<threshold> 28.989351 </threshold>
							<split pos="left">
								<feature> 23 </feature>
								<threshold> 22.299501 </threshold>
								<split pos="left">
									<feature> 29 </feature>
									<threshold> 8.396016 </threshold>
									<split pos="left">
										<feature> 23 </feature>
										<threshold> 18.954576 </threshold>
										<split pos="left">
											<feature> 23 </feature>
											<threshold> 17.839602 </threshold>
											<split pos="left">
												<output> 0.13230097 </output>
											</split>
											<split pos="right">
												<output> -1.3348548 </output>
											</split>
										</split>
										<split pos="right">
											<output> 0.32270455 </output>
										</split>
									</split>
									<split pos="right">
										<output> 0.5239019 </output>
									</split>
								</split>
								<split pos="right">
									<output> -0.5529813 </output>
								</split>
							</split>
							<split pos="right">
								<output> 0.37614495 </output>
							</split>
						</split>
						<split pos="right">
							<output> -0.44569984 </output>
						</split>
					</split>
					<split pos="right">
						<output> 1.1241349 </output>
					</split>
				</split>
				<split pos="right">
					<output> 0.36355874 </output>
				</split>
			</split>
			<split pos="right">
				<output> 0.8076013 </output>
			</split>
		</split>
	</tree>
	<tree id="20" weight="0.1">
		<split>
			<feature> 1 </feature>
			<threshold> 2.5224059 </threshold>
			<split pos="left">
				<feature> 6 </feature>
				<threshold> 675436.0 </threshold>
				<split pos="left">
					<feature> 27 </feature>
					<threshold> 11.918758 </threshold>
					<split pos="left">
						<feature> 1 </feature>
						<threshold> 2.4784105 </threshold>
						<split pos="left">
							<feature> 1 </feature>
							<threshold> 2.4637454 </threshold>
							<split pos="left">
								<feature> 3 </feature>
								<threshold> 3.2536006 </threshold>
								<split pos="left">
									<feature> 1 </feature>
									<threshold> 1.8918054 </threshold>
									<split pos="left">
										<feature> 33 </feature>
										<threshold> 0.9996132 </threshold>
										<split pos="left">
											<feature> 23 </feature>
											<threshold> 23.414476 </threshold>
											<split pos="left">
												<output> 0.13742855 </output>
											</split>
											<split pos="right">
												<output> 0.25686592 </output>
											</split>
										</split>
										<split pos="right">
											<output> -0.44384304 </output>
										</split>
									</split>
									<split pos="right">
										<output> 0.2729347 </output>
									</split>
								</split>
								<split pos="right">
									<output> -5.1262927 </output>
								</split>
							</split>
							<split pos="right">
								<output> 1.118824 </output>
							</split>
						</split>
						<split pos="right">
							<output> -1.8159564 </output>
						</split>
					</split>
					<split pos="right">
						<output> 0.5756367 </output>
					</split>
				</split>
				<split pos="right">
					<output> 0.80111736 </output>
				</split>
			</split>
			<split pos="right">
				<output> 0.7782878 </output>
			</split>
		</split>
	</tree>
	<tree id="21" weight="0.1">
		<split>
			<feature> 1 </feature>
			<threshold> 2.3610895 </threshold>
			<split pos="left">
				<feature> 1 </feature>
				<threshold> 2.3464243 </threshold>
				<split pos="left">
					<feature> 6 </feature>
					<threshold> 955210.7 </threshold>
					<split pos="left">
						<feature> 17 </feature>
						<threshold> 25.85249 </threshold>
						<split pos="left">
							<feature> 2 </feature>
							<threshold> 7.320654 </threshold>
							<split pos="left">
								<feature> 21 </feature>
								<threshold> 43.008118 </threshold>
								<split pos="left">
									<feature> 21 </feature>
									<threshold> 30.853647 </threshold>
									<split pos="left">
										<feature> 21 </feature>
										<threshold> 28.983728 </threshold>
										<split pos="left">
											<feature> 1 </feature>
											<threshold> 1.965131 </threshold>
											<split pos="left">
												<output> -0.097105525 </output>
											</split>
											<split pos="right">
												<output> 0.35148016 </output>
											</split>
										</split>
										<split pos="right">
											<output> -5.233419 </output>
										</split>
									</split>
									<split pos="right">
										<output> 0.6040599 </output>
									</split>
								</split>
								<split pos="right">
									<output> -1.0283071 </output>
								</split>
							</split>
							<split pos="right">
								<output> -5.08474 </output>
							</split>
						</split>
						<split pos="right">
							<output> 0.8380306 </output>
						</split>
					</split>
					<split pos="right">
						<output> 0.66823786 </output>
					</split>
				</split>
				<split pos="right">
					<output> -7.8906355 </output>
				</split>
			</split>
			<split pos="right">
				<output> 0.7276987 </output>
			</split>
		</split>
	</tree>
	<tree id="22" weight="0.1">
		<split>
			<feature> 1 </feature>
			<threshold> 2.302429 </threshold>
			<split pos="left">
				<feature> 23 </feature>
				<threshold> 28.989351 </threshold>
				<split pos="left">
					<feature> 23 </feature>
					<threshold> 27.874376 </threshold>
					<split pos="left">
						<feature> 21 </feature>
						<threshold> 23.373972 </threshold>
						<split pos="left">
							<feature> 23 </feature>
							<threshold> 22.299501 </threshold>
							<split pos="left">
								<feature> 27 </feature>
								<threshold> 9.310281 </threshold>
								<split pos="left">
									<feature> 2 </feature>
									<threshold> 6.904312 </threshold>
									<split pos="left">
										<feature> 21 </feature>
										<threshold> 16.829256 </threshold>
										<split pos="left">
											<feature> 1 </feature>
											<threshold> 2.199773 </threshold>
											<split pos="left">
												<output> -0.12518191 </output>
											</split>
											<split pos="right">
												<output> 1.1435251 </output>
											</split>
										</split>
										<split pos="right">
											<output> -0.7057408 </output>
										</split>
									</split>
									<split pos="right">
										<output> 0.9270774 </output>
									</split>
								</split>
								<split pos="right">
									<output> 0.38354123 </output>
								</split>
							</split>
							<split pos="right">
								<output> -0.50789595 </output>
							</split>
						</split>
						<split pos="right">
							<output> 1.1718358 </output>
						</split>
					</split>
					<split pos="right">
						<output> -3.6376622 </output>
					</split>
				</split>
				<split pos="right">
					<output> 0.35578373 </output>
				</split>
			</split>
			<split pos="right">
				<output> 0.6675354 </output>
			</split>
		</split>
	</tree>
	<tree id="23" weight="0.1">
		<split>
			<feature> 1 </feature>
			<threshold> 2.302429 </threshold>
			<split pos="left">
				<feature> 6 </feature>
				<threshold> 955210.7 </threshold>
				<split pos="left">
					<feature> 15 </feature>
					<threshold> 26.163536 </threshold>
					<split pos="left">
						<feature> 33 </feature>
						<threshold> 0.9996132 </threshold>
						<split pos="left">
							<feature> 21 </feature>
							<threshold> 23.373972 </threshold>
							<split pos="left">
								<feature> 21 </feature>
								<threshold> 21.504053 </threshold>
								<split pos="left">
									<feature> 3 </feature>
									<threshold> 3.1298227 </threshold>
									<split pos="left">
										<feature> 3 </feature>
										<threshold> 2.369473 </threshold>
										<split pos="left">
											<feature> 1 </feature>
											<threshold> 2.082452 </threshold>
											<split pos="left">
												<output> 0.1669402 </output>
											</split>
											<split pos="right">
												<output> 1.0913074 </output>
											</split>
										</split>
										<split pos="right">
											<output> -1.2108911 </output>
										</split>
									</split>
									<split pos="right">
										<output> 1.0917057 </output>
									</split>
								</split>
								<split pos="right">
									<output> -3.4789512 </output>
								</split>
							</split>
							<split pos="right">
								<output> 0.312557 </output>
							</split>
						</split>
						<split pos="right">
							<output> -0.38246295 </output>
						</split>
					</split>
					<split pos="right">
						<output> 0.8143216 </output>
					</split>
				</split>
				<split pos="right">
					<output> 0.70446706 </output>
				</split>
			</split>
			<split pos="right">
				<output> 0.5666529 </output>
			</split>
		</split>
	</tree>
	<tree id="24" weight="0.1">
		<split>
			<feature> 1 </feature>
			<threshold> 1.9944613 </threshold>
			<split pos="left">
				<feature> 2 </feature>
				<threshold> 6.904312 </threshold>
				<split pos="left">
					<feature> 15 </feature>
					<threshold> 26.163536 </threshold>
					<split pos="left">
						<feature> 2 </feature>
						<threshold> 5.27364 </threshold>
						<split pos="left">
							<feature> 6 </feature>
							<threshold> 955210.7 </threshold>
							<split pos="left">
								<feature> 33 </feature>
								<threshold> 0.999691 </threshold>
								<split pos="left">
									<feature> 2 </feature>
									<threshold> 2.775598 </threshold>
									<split pos="left">
										<feature> 21 </feature>
										<threshold> 43.008118 </threshold>
										<split pos="left">
											<feature> 21 </feature>
											<threshold> 39.26828 </threshold>
											<split pos="left">
												<output> 0.032245565 </output>
											</split>
											<split pos="right">
												<output> 1.1089495 </output>
											</split>
										</split>
										<split pos="right">
											<output> -2.4030883 </output>
										</split>
									</split>
									<split pos="right">
										<output> 0.51365876 </output>
									</split>
								</split>
								<split pos="right">
									<output> -0.37862843 </output>
								</split>
							</split>
							<split pos="right">
								<output> 1.1983188 </output>
							</split>
						</split>
						<split pos="right">
							<output> -1.1299727 </output>
						</split>
					</split>
					<split pos="right">
						<output> 1.0104532 </output>
					</split>
				</split>
				<split pos="right">
					<output> 0.9017729 </output>
				</split>
			</split>
			<split pos="right">
				<output> 0.50657827 </output>
			</split>
		</split>
	</tree>
	<tree id="25" weight="0.1">
		<split>
			<feature> 1 </feature>
			<threshold> 1.9944613 </threshold>
			<split pos="left">
				<feature> 2 </feature>
				<threshold> 6.904312 </threshold>
				<split pos="left">
					<feature> 15 </feature>
					<threshold> 26.163536 </threshold>
					<split pos="left">
						<feature> 6 </feature>
						<threshold> 675436.0 </threshold>
						<split pos="left">
							<feature> 15 </feature>
							<threshold> 8.589022 </threshold>
							<split pos="left">
								<output> -0.8791859 </output>
							</split>
							<split pos="right">
								<feature> 21 </feature>
								<threshold> 40.20324 </threshold>
								<split pos="left">
									<feature> 21 </feature>
									<threshold> 38.33332 </threshold>
									<split pos="left">
										<feature> 21 </feature>
										<threshold> 37.39836 </threshold>
										<split pos="left">
											<feature> 21 </feature>
											<threshold> 34.593483 </threshold>
											<split pos="left">
												<output> 0.002211306 </output>
											</split>
											<split pos="right">
												<output> -5.8639235 </output>
											</split>
										</split>
										<split pos="right">
											<output> 0.58592933 </output>
										</split>
									</split>
									<split pos="right">
										<output> -1.9781224 </output>
									</split>
								</split>
								<split pos="right">
									<output> 0.7995999 </output>
								</split>
							</split>
						</split>
						<split pos="right">
							<output> 0.49726886 </output>
						</split>
					</split>
					<split pos="right">
						<output> 1.0069779 </output>
					</split>
				</split>
				<split pos="right">
					<output> 0.8638247 </output>
				</split>
			</split>
			<split pos="right">
				<output> 0.42622918 </output>
			</split>
		</split>
	</tree>
	<tree id="26" weight="0.1">
		<split>
			<feature> 1 </feature>
			<threshold> 2.0971172 </threshold>
			<split pos="left">
				<feature> 15 </feature>
				<threshold> 26.163536 </threshold>
				<split pos="left">
					<feature> 6 </feature>
					<threshold> 675436.0 </threshold>
					<split pos="left">
						<feature> 33 </feature>
						<threshold> 0.9996132 </threshold>
						<split pos="left">
							<feature> 21 </feature>
							<threshold> 23.373972 </threshold>
							<split pos="left">
								<feature> 1 </feature>
								<threshold> 2.0384567 </threshold>
								<split pos="left">
									<feature> 1 </feature>
									<threshold> 2.0091264 </threshold>
									<split pos="left">
										<feature> 2 </feature>
										<threshold> 2.775598 </threshold>
										<split pos="left">
											<feature> 21 </feature>
											<threshold> 19.634134 </threshold>
											<split pos="left">
												<output> 0.09399275 </output>
											</split>
											<split pos="right">
												<output> -0.856803 </output>
											</split>
										</split>
										<split pos="right">
											<output> 0.3643139 </output>
										</split>
									</split>
									<split pos="right">
										<output> 0.83179486 </output>
									</split>
								</split>
								<split pos="right">
									<output> -0.95947015 </output>
								</split>
							</split>
							<split pos="right">
								<output> 0.36481822 </output>
							</split>
						</split>
						<split pos="right">
							<output> -0.37574708 </output>
						</split>
					</split>
					<split pos="right">
						<output> 0.4682185 </output>
					</split>
				</split>
				<split pos="right">
					<output> 1.0134834 </output>
				</split>
			</split>
			<split pos="right">
				<output> 0.4481817 </output>
			</split>
		</split>
	</tree>
	<tree id="27" weight="0.1">
		<split>
			<feature> 1 </feature>
			<threshold> 1.9944613 </threshold>
			<split pos="left">
				<feature> 2 </feature>
				<threshold> 6.904312 </threshold>
				<split pos="left">
					<feature> 15 </feature>
					<threshold> 26.163536 </threshold>
					<split pos="left">
						<feature> 6 </feature>
						<threshold> 1153041.4 </threshold>
						<split pos="left">
							<feature> 33 </feature>
							<threshold> 0.9996132 </threshold>
							<split pos="left">
								<feature> 23 </feature>
								<threshold> 28.989351 </threshold>
								<split pos="left">
									<feature> 33 </feature>
									<threshold> 0.9988354 </threshold>
									<split pos="left">
										<feature> 29 </feature>
										<threshold> 8.396016 </threshold>
										<split pos="left">
											<feature> 23 </feature>
											<threshold> 22.299501 </threshold>
											<split pos="left">
												<output> -0.0067637837 </output>
											</split>
											<split pos="right">
												<output> 0.5473786 </output>
											</split>
										</split>
										<split pos="right">
											<output> 0.29472277 </output>
										</split>
									</split>
									<split pos="right">
										<output> 0.6685821 </output>
									</split>
								</split>
								<split pos="right">
									<output> 0.35667068 </output>
								</split>
							</split>
							<split pos="right">
								<output> -0.3563681 </output>
							</split>
						</split>
						<split pos="right">
							<output> -4.1334305 </output>
						</split>
					</split>
					<split pos="right">
						<output> 0.97964436 </output>
					</split>
				</split>
				<split pos="right">
					<output> 0.8074018 </output>
				</split>
			</split>
			<split pos="right">
				<output> 0.3876566 </output>
			</split>
		</split>
	</tree>
	<tree id="28" weight="0.1">
		<split>
			<feature> 6 </feature>
			<threshold> 955210.7 </threshold>
			<split pos="left">
				<feature> 21 </feature>
				<threshold> 43.008118 </threshold>
				<split pos="left">
					<feature> 21 </feature>
					<threshold> 30.853647 </threshold>
					<split pos="left">
						<feature> 1 </feature>
						<threshold> 2.3757546 </threshold>
						<split pos="left">
							<feature> 23 </feature>
							<threshold> 30.104326 </threshold>
							<split pos="left">
								<feature> 21 </feature>
								<threshold> 24.308931 </threshold>
								<split pos="left">
									<feature> 23 </feature>
									<threshold> 28.989351 </threshold>
									<split pos="left">
										<feature> 34 </feature>
										<threshold> 1895.6797 </threshold>
										<split pos="left">
											<feature> 1 </feature>
											<threshold> 2.1704428 </threshold>
											<split pos="left">
												<output> -0.23746462 </output>
											</split>
											<split pos="right">
												<output> -3.1896172 </output>
											</split>
										</split>
										<split pos="right">
											<output> 0.29081783 </output>
										</split>
									</split>
									<split pos="right">
										<output> -4.538133 </output>
									</split>
								</split>
								<split pos="right">
									<output> 0.7519485 </output>
								</split>
							</split>
							<split pos="right">
								<output> -2.1583989 </output>
							</split>
						</split>
						<split pos="right">
							<output> 0.6879268 </output>
						</split>
					</split>
					<split pos="right">
						<output> 0.4844391 </output>
					</split>
				</split>
				<split pos="right">
					<output> -0.98454064 </output>
				</split>
			</split>
			<split pos="right">
				<output> 0.66327333 </output>
			</split>
		</split>
	</tree>
	<tree id="29" weight="0.1">
		<split>
			<feature> 1 </feature>
			<threshold> 1.9944613 </threshold>
			<split pos="left">
				<feature> 6 </feature>
				<threshold> 955210.7 </threshold>
				<split pos="left">
					<feature> 15 </feature>
					<threshold> 26.163536 </threshold>
					<split pos="left">
						<feature> 22 </feature>
						<threshold> 6.1839075 </threshold>
						<split pos="left">
							<feature> 1 </feature>
							<threshold> 0.5279467 </threshold>
							<split pos="left">
								<output> -1.4886696 </output>
							</split>
							<split pos="right">
								<feature> 34 </feature>
								<threshold> 3708.3594 </threshold>
								<split pos="left">
									<feature> 5 </feature>
									<threshold> 5424369.5 </threshold>
									<split pos="left">
										<feature> 7 </feature>
										<threshold> 1318301.9 </threshold>
										<split pos="left">
											<output> -0.45592168 </output>
										</split>
										<split pos="right">
											<feature> 16 </feature>
											<threshold> 6.935934 </threshold>
											<split pos="left">
												<output> -0.03763105 </output>
											</split>
											<split pos="right">
												<output> 0.5726622 </output>
											</split>
										</split>
									</split>
									<split pos="right">
										<output> -5.2223725 </output>
									</split>
								</split>
								<split pos="right">
									<output> 0.3448973 </output>
								</split>
							</split>
						</split>
						<split pos="right">
							<output> 0.55021995 </output>
						</split>
					</split>
					<split pos="right">
						<output> 0.96739775 </output>
					</split>
				</split>
				<split pos="right">
					<output> 0.48224685 </output>
				</split>
			</split>
			<split pos="right">
				<output> 0.41351384 </output>
			</split>
		</split>
	</tree>
	<tree id="30" weight="0.1">
		<split>
			<feature> 6 </feature>
			<threshold> 955210.7 </threshold>
			<split pos="left">
				<feature> 1 </feature>
				<threshold> 1.9944613 </threshold>
				<split pos="left">
					<feature> 22 </feature>
					<threshold> 6.1839075 </threshold>
					<split pos="left">
						<feature> 17 </feature>
						<threshold> 25.85249 </threshold>
						<split pos="left">
							<feature> 14 </feature>
							<threshold> 0.9849483 </threshold>
							<split pos="left">
								<feature> 14 </feature>
								<threshold> 0.7879586 </threshold>
								<split pos="left">
									<feature> 21 </feature>
									<threshold> 52.35771 </threshold>
									<split pos="left">
										<feature> 23 </feature>
										<threshold> 47.943928 </threshold>
										<split pos="left">
											<feature> 21 </feature>
											<threshold> 38.33332 </threshold>
											<split pos="left">
												<output> -0.09168774 </output>
											</split>
											<split pos="right">
												<output> -2.7053444 </output>
											</split>
										</split>
										<split pos="right">
											<output> 1.0330592 </output>
										</split>
									</split>
									<split pos="right">
										<output> -2.7157168 </output>
									</split>
								</split>
								<split pos="right">
									<output> 1.039393 </output>
								</split>
							</split>
							<split pos="right">
								<output> -0.69449115 </output>
							</split>
						</split>
						<split pos="right">
							<output> 1.0731908 </output>
						</split>
					</split>
					<split pos="right">
						<output> 0.5232363 </output>
					</split>
				</split>
				<split pos="right">
					<output> 0.32472953 </output>
				</split>
			</split>
			<split pos="right">
				<output> 0.5524054 </output>
			</split>
		</split>
	</tree>
	<tree id="31" weight="0.1">
		<split>
			<feature> 6 </feature>
			<threshold> 675436.0 </threshold>
			<split pos="left">
				<feature> 1 </feature>
				<threshold> 1.8331449 </threshold>
				<split pos="left">
					<feature> 21 </feature>
					<threshold> 37.39836 </threshold>
					<split pos="left">
						<feature> 21 </feature>
						<threshold> 34.593483 </threshold>
						<split pos="left">
							<feature> 21 </feature>
							<threshold> 30.853647 </threshold>
							<split pos="left">
								<feature> 23 </feature>
								<threshold> 22.299501 </threshold>
								<split pos="left">
									<feature> 29 </feature>
									<threshold> 11.844384 </threshold>
									<split pos="left">
										<feature> 22 </feature>
										<threshold> 6.1839075 </threshold>
										<split pos="left">
											<feature> 23 </feature>
											<threshold> 21.184526 </threshold>
											<split pos="left">
												<output> -0.17314667 </output>
											</split>
											<split pos="right">
												<output> 0.47912794 </output>
											</split>
										</split>
										<split pos="right">
											<output> 0.3555048 </output>
										</split>
									</split>
									<split pos="right">
										<output> 0.8169205 </output>
									</split>
								</split>
								<split pos="right">
									<output> -0.81208223 </output>
								</split>
							</split>
							<split pos="right">
								<output> 1.1465749 </output>
							</split>
						</split>
						<split pos="right">
							<output> -4.127814 </output>
						</split>
					</split>
					<split pos="right">
						<output> 0.55065054 </output>
					</split>
				</split>
				<split pos="right">
					<output> 0.30601212 </output>
				</split>
			</split>
			<split pos="right">
				<output> 0.52695614 </output>
			</split>
		</split>
	</tree>
	<tree id="32" weight="0.1">
		<split>
			<feature> 21 </feature>
			<threshold> 17.764215 </threshold>
			<split pos="left">
				<feature> 1 </feature>
				<threshold> 2.3757546 </threshold>
				<split pos="left">
					<feature> 34 </feature>
					<threshold> 1895.6797 </threshold>
					<split pos="left">
						<feature> 1 </feature>
						<threshold> 2.317094 </threshold>
						<split pos="left">
							<feature> 23 </feature>
							<threshold> 20.069551 </threshold>
							<split pos="left">
								<output> -0.26898468 </output>
							</split>
							<split pos="right">
								<output> -1.9780934 </output>
							</split>
						</split>
						<split pos="right">
							<output> -3.601094 </output>
						</split>
					</split>
					<split pos="right">
						<feature> 3 </feature>
						<threshold> 2.2810602 </threshold>
						<split pos="left">
							<feature> 22 </feature>
							<threshold> 6.1839075 </threshold>
							<split pos="left">
								<feature> 1 </feature>
								<threshold> 1.9211357 </threshold>
								<split pos="left">
									<feature> 6 </feature>
									<threshold> 675436.0 </threshold>
									<split pos="left">
										<output> 0.09604643 </output>
									</split>
									<split pos="right">
										<output> 0.36723506 </output>
									</split>
								</split>
								<split pos="right">
									<output> 0.57868683 </output>
								</split>
							</split>
							<split pos="right">
								<output> 0.5786168 </output>
							</split>
						</split>
						<split pos="right">
							<output> 1.1652964 </output>
						</split>
					</split>
				</split>
				<split pos="right">
					<output> 0.94178164 </output>
				</split>
			</split>
			<split pos="right">
				<output> 0.27980268 </output>
			</split>
		</split>
	</tree>
	<tree id="33" weight="0.1">
		<split>
			<feature> 6 </feature>
			<threshold> 675436.0 </threshold>
			<split pos="left">
				<feature> 21 </feature>
				<threshold> 43.008118 </threshold>
				<split pos="left">
					<feature> 1 </feature>
					<threshold> 2.0971172 </threshold>
					<split pos="left">
						<feature> 21 </feature>
						<threshold> 40.20324 </threshold>
						<split pos="left">
							<feature> 22 </feature>
							<threshold> 6.1839075 </threshold>
							<split pos="left">
								<feature> 17 </feature>
								<threshold> 25.85249 </threshold>
								<split pos="left">
									<feature> 21 </feature>
									<threshold> 30.853647 </threshold>
									<split pos="left">
										<feature> 21 </feature>
										<threshold> 26.17885 </threshold>
										<split pos="left">
											<feature> 23 </feature>
											<threshold> 28.989351 </threshold>
											<split pos="left">
												<output> -0.13543102 </output>
											</split>
											<split pos="right">
												<output> 0.6629309 </output>
											</split>
										</split>
										<split pos="right">
											<output> -2.3025687 </output>
										</split>
									</split>
									<split pos="right">
										<output> 0.3842509 </output>
									</split>
								</split>
								<split pos="right">
									<output> 1.089422 </output>
								</split>
							</split>
							<split pos="right">
								<output> 0.3192132 </output>
							</split>
						</split>
						<split pos="right">
							<output> 1.0945382 </output>
						</split>
					</split>
					<split pos="right">
						<output> 0.4376973 </output>
					</split>
				</split>
				<split pos="right">
					<output> -0.9498335 </output>
				</split>
			</split>
			<split pos="right">
				<output> 0.45994112 </output>
			</split>
		</split>
	</tree>
	<tree id="34" weight="0.1">
		<split>
			<feature> 15 </feature>
			<threshold> 20.877968 </threshold>
			<split pos="left">
				<feature> 27 </feature>
				<threshold> 12.788251 </threshold>
				<split pos="left">
					<feature> 6 </feature>
					<threshold> 675436.0 </threshold>
					<split pos="left">
						<feature> 1 </feature>
						<threshold> 2.551736 </threshold>
						<split pos="left">
							<feature> 1 </feature>
							<threshold> 2.4490802 </threshold>
							<split pos="left">
								<feature> 1 </feature>
								<threshold> 2.0384567 </threshold>
								<split pos="left">
									<feature> 1 </feature>
									<threshold> 1.9944613 </threshold>
									<split pos="left">
										<feature> 21 </feature>
										<threshold> 17.764215 </threshold>
										<split pos="left">
											<feature> 23 </feature>
											<threshold> 14.494676 </threshold>
											<split pos="left">
												<output> -0.05496548 </output>
											</split>
											<split pos="right">
												<output> -0.60736245 </output>
											</split>
										</split>
										<split pos="right">
											<output> 0.22851919 </output>
										</split>
									</split>
									<split pos="right">
										<output> 0.6726316 </output>
									</split>
								</split>
								<split pos="right">
									<output> -0.61219627 </output>
								</split>
							</split>
							<split pos="right">
								<output> 1.0878803 </output>
							</split>
						</split>
						<split pos="right">
							<output> -20.584114 </output>
						</split>
					</split>
					<split pos="right">
						<output> 0.35902184 </output>
					</split>
				</split>
				<split pos="right">
					<output> -3.4344683 </output>
				</split>
			</split>
			<split pos="right">
				<output> 0.45858845 </output>
			</split>
		</split>
	</tree>
	<tree id="35" weight="0.1">
		<split>
			<feature> 21 </feature>
			<threshold> 14.959338 </threshold>
			<split pos="left">
				<feature> 2 </feature>
				<threshold> 7.320654 </threshold>
				<split pos="left">
					<feature> 2 </feature>
					<threshold> 6.904312 </threshold>
					<split pos="left">
						<feature> 29 </feature>
						<threshold> 11.844384 </threshold>
						<split pos="left">
							<feature> 23 </feature>
							<threshold> 17.839602 </threshold>
							<split pos="left">
								<feature> 34 </feature>
								<threshold> 1895.6797 </threshold>
								<split pos="left">
									<output> -0.28151414 </output>
								</split>
								<split pos="right">
									<feature> 22 </feature>
									<threshold> 6.1839075 </threshold>
									<split pos="left">
										<feature> 1 </feature>
										<threshold> 2.0384567 </threshold>
										<split pos="left">
											<output> 0.14485906 </output>
										</split>
										<split pos="right">
											<output> -3.2805176 </output>
										</split>
									</split>
									<split pos="right">
										<output> 0.48796314 </output>
									</split>
								</split>
							</split>
							<split pos="right">
								<output> -3.166808 </output>
							</split>
						</split>
						<split pos="right">
							<output> 1.0935419 </output>
						</split>
					</split>
					<split pos="right">
						<output> 0.982664 </output>
					</split>
				</split>
				<split pos="right">
					<output> -5.9763055 </output>
				</split>
			</split>
			<split pos="right">
				<feature> 7 </feature>
				<threshold> 3295754.8 </threshold>
				<split pos="left">
					<output> -0.07612838 </output>
				</split>
				<split pos="right">
					<output> 0.6256349 </output>
				</split>
			</split>
		</split>
	</tree>
	<tree id="36" weight="0.1">
		<split>
			<feature> 1 </feature>
			<threshold> 1.8331449 </threshold>
			<split pos="left">
				<feature> 2 </feature>
				<threshold> 6.904312 </threshold>
				<split pos="left">
					<feature> 2 </feature>
					<threshold> 5.516506 </threshold>
					<split pos="left">
						<feature> 6 </feature>
						<threshold> 955210.7 </threshold>
						<split pos="left">
							<feature> 15 </feature>
							<threshold> 19.292297 </threshold>
							<split pos="left">
								<feature> 27 </feature>
								<threshold> 11.517454 </threshold>
								<split pos="left">
									<feature> 21 </feature>
									<threshold> 16.829256 </threshold>
									<split pos="left">
										<feature> 7 </feature>
										<threshold> 1318301.9 </threshold>
										<split pos="left">
											<output> -0.2738545 </output>
										</split>
										<split pos="right">
											<feature> 23 </feature>
											<threshold> 18.954576 </threshold>
											<split pos="left">
												<output> 0.1665381 </output>
											</split>
											<split pos="right">
												<output> 0.39156893 </output>
											</split>
										</split>
									</split>
									<split pos="right">
										<output> -0.30908918 </output>
									</split>
								</split>
								<split pos="right">
									<output> -4.9005146 </output>
								</split>
							</split>
							<split pos="right">
								<output> 0.5365775 </output>
							</split>
						</split>
						<split pos="right">
							<output> 0.51340127 </output>
						</split>
					</split>
					<split pos="right">
						<output> -1.8135291 </output>
					</split>
				</split>
				<split pos="right">
					<output> 0.8302724 </output>
				</split>
			</split>
			<split pos="right">
				<output> 0.288853 </output>
			</split>
		</split>
	</tree>
	<tree id="37" weight="0.1">
		<split>
			<feature> 2 </feature>
			<threshold> 8.25742 </threshold>
			<split pos="left">
				<feature> 21 </feature>
				<threshold> 38.33332 </threshold>
				<split pos="left">
					<feature> 23 </feature>
					<threshold> 36.794178 </threshold>
					<split pos="left">
						<feature> 1 </feature>
						<threshold> 2.0971172 </threshold>
						<split pos="left">
							<feature> 2 </feature>
							<threshold> 4.6491275 </threshold>
							<split pos="left">
								<feature> 6 </feature>
								<threshold> 1013154.0 </threshold>
								<split pos="left">
									<feature> 23 </feature>
									<threshold> 30.104326 </threshold>
									<split pos="left">
										<feature> 23 </feature>
										<threshold> 28.989351 </threshold>
										<split pos="left">
											<feature> 21 </feature>
											<threshold> 24.308931 </threshold>
											<split pos="left">
												<output> -0.048848893 </output>
											</split>
											<split pos="right">
												<output> -4.562868 </output>
											</split>
										</split>
										<split pos="right">
											<output> 0.6971362 </output>
										</split>
									</split>
									<split pos="right">
										<output> -1.784063 </output>
									</split>
								</split>
								<split pos="right">
									<output> -5.243 </output>
								</split>
							</split>
							<split pos="right">
								<output> 0.49368018 </output>
							</split>
						</split>
						<split pos="right">
							<output> 0.36891952 </output>
						</split>
					</split>
					<split pos="right">
						<output> 0.69448954 </output>
					</split>
				</split>
				<split pos="right">
					<output> -0.72497696 </output>
				</split>
			</split>
			<split pos="right">
				<output> 1.1601198 </output>
			</split>
		</split>
	</tree>
	<tree id="38" weight="0.1">
		<split>
			<feature> 15 </feature>
			<threshold> 31.052687 </threshold>
			<split pos="left">
				<feature> 6 </feature>
				<threshold> 584944.75 </threshold>
				<split pos="left">
					<feature> 23 </feature>
					<threshold> 46.828953 </threshold>
					<split pos="left">
						<feature> 1 </feature>
						<threshold> 2.3610895 </threshold>
						<split pos="left">
							<feature> 21 </feature>
							<threshold> 30.853647 </threshold>
							<split pos="left">
								<feature> 21 </feature>
								<threshold> 28.983728 </threshold>
								<split pos="left">
									<feature> 23 </feature>
									<threshold> 28.989351 </threshold>
									<split pos="left">
										<feature> 1 </feature>
										<threshold> 2.3317592 </threshold>
										<split pos="left">
											<feature> 27 </feature>
											<threshold> 4.360888 </threshold>
											<split pos="left">
												<output> -0.6034815 </output>
											</split>
											<split pos="right">
												<output> 0.029256377 </output>
											</split>
										</split>
										<split pos="right">
											<output> -3.8379335 </output>
										</split>
									</split>
									<split pos="right">
										<output> 0.5587193 </output>
									</split>
								</split>
								<split pos="right">
									<output> -5.7999454 </output>
								</split>
							</split>
							<split pos="right">
								<output> 0.46712577 </output>
							</split>
						</split>
						<split pos="right">
							<output> 0.70956486 </output>
						</split>
					</split>
					<split pos="right">
						<output> -1.3201528 </output>
					</split>
				</split>
				<split pos="right">
					<output> 0.29617754 </output>
				</split>
			</split>
			<split pos="right">
				<output> 1.1276888 </output>
			</split>
		</split>
	</tree>
	<tree id="39" weight="0.1">
		<split>
			<feature> 3 </feature>
			<threshold> 1.9804566 </threshold>
			<split pos="left">
				<feature> 6 </feature>
				<threshold> 1013154.0 </threshold>
				<split pos="left">
					<feature> 2 </feature>
					<threshold> 6.904312 </threshold>
					<split pos="left">
						<feature> 2 </feature>
						<threshold> 5.238945 </threshold>
						<split pos="left">
							<feature> 2 </feature>
							<threshold> 4.6491275 </threshold>
							<split pos="left">
								<feature> 10 </feature>
								<threshold> 1350872.0 </threshold>
								<split pos="left">
									<feature> 17 </feature>
									<threshold> 23.11057 </threshold>
									<split pos="left">
										<feature> 1 </feature>
										<threshold> 1.9944613 </threshold>
										<split pos="left">
											<feature> 1 </feature>
											<threshold> 0.5279467 </threshold>
											<split pos="left">
												<output> -1.2187289 </output>
											</split>
											<split pos="right">
												<output> -0.061814286 </output>
											</split>
										</split>
										<split pos="right">
											<output> -3.6241634 </output>
										</split>
									</split>
									<split pos="right">
										<output> 0.69112825 </output>
									</split>
								</split>
								<split pos="right">
									<output> -5.0200825 </output>
								</split>
							</split>
							<split pos="right">
								<output> 0.71851504 </output>
							</split>
						</split>
						<split pos="right">
							<output> -1.2704247 </output>
						</split>
					</split>
					<split pos="right">
						<output> 0.70907396 </output>
					</split>
				</split>
				<split pos="right">
					<output> 1.1506594 </output>
				</split>
			</split>
			<split pos="right">
				<output> 0.3167634 </output>
			</split>
		</split>
	</tree>
	<tree id="40" weight="0.1">
		<split>
			<feature> 6 </feature>
			<threshold> 955210.7 </threshold>
			<split pos="left">
				<feature> 27 </feature>
				<threshold> 9.444049 </threshold>
				<split pos="left">
					<feature> 23 </feature>
					<threshold> 28.989351 </threshold>
					<split pos="left">
						<feature> 23 </feature>
						<threshold> 27.874376 </threshold>
						<split pos="left">
							<feature> 21 </feature>
							<threshold> 23.373972 </threshold>
							<split pos="left">
								<feature> 29 </feature>
								<threshold> 9.29559 </threshold>
								<split pos="left">
									<feature> 7 </feature>
									<threshold> 6005597.5 </threshold>
									<split pos="left">
										<feature> 22 </feature>
										<threshold> 14.47442 </threshold>
										<split pos="left">
											<feature> 27 </feature>
											<threshold> 4.360888 </threshold>
											<split pos="left">
												<output> -0.55940413 </output>
											</split>
											<split pos="right">
												<output> 0.0075581754 </output>
											</split>
										</split>
										<split pos="right">
											<output> -5.367842 </output>
										</split>
									</split>
									<split pos="right">
										<output> 0.8779217 </output>
									</split>
								</split>
								<split pos="right">
									<output> -3.9543395 </output>
								</split>
							</split>
							<split pos="right">
								<output> 1.1075996 </output>
							</split>
						</split>
						<split pos="right">
							<output> -3.0837114 </output>
						</split>
					</split>
					<split pos="right">
						<output> 0.360057 </output>
					</split>
				</split>
				<split pos="right">
					<output> 0.26523796 </output>
				</split>
			</split>
			<split pos="right">
				<output> 0.40202647 </output>
			</split>
		</split>
	</tree>
	<tree id="41" weight="0.1">
		<split>
			<feature> 1 </feature>
			<threshold> 1.8331449 </threshold>
			<split pos="left">
				<feature> 23 </feature>
				<threshold> 47.943928 </threshold>
				<split pos="left">
					<feature> 21 </feature>
					<threshold> 38.33332 </threshold>
					<split pos="left">
						<feature> 2 </feature>
						<threshold> 6.904312 </threshold>
						<split pos="left">
							<feature> 2 </feature>
							<threshold> 5.516506 </threshold>
							<split pos="left">
								<feature> 6 </feature>
								<threshold> 955210.7 </threshold>
								<split pos="left">
									<feature> 23 </feature>
									<threshold> 22.299501 </threshold>
									<split pos="left">
										<feature> 27 </feature>
										<threshold> 9.444049 </threshold>
										<split pos="left">
											<feature> 2 </feature>
											<threshold> 3.7817504 </threshold>
											<split pos="left">
												<output> -0.107745044 </output>
											</split>
											<split pos="right">
												<output> 0.48341894 </output>
											</split>
										</split>
										<split pos="right">
											<output> 0.43663943 </output>
										</split>
									</split>
									<split pos="right">
										<output> -0.36688894 </output>
									</split>
								</split>
								<split pos="right">
									<output> 0.63629705 </output>
								</split>
							</split>
							<split pos="right">
								<output> -1.7698447 </output>
							</split>
						</split>
						<split pos="right">
							<output> 0.6210957 </output>
						</split>
					</split>
					<split pos="right">
						<output> -2.4229338 </output>
					</split>
				</split>
				<split pos="right">
					<output> 0.9251392 </output>
				</split>
			</split>
			<split pos="right">
				<output> 0.25515172 </output>
			</split>
		</split>
	</tree>
	<tree id="42" weight="0.1">
		<split>
			<feature> 6 </feature>
			<threshold> 955210.7 </threshold>
			<split pos="left">
				<feature> 7 </feature>
				<threshold> 5932358.5 </threshold>
				<split pos="left">
					<feature> 17 </feature>
					<threshold> 29.377813 </threshold>
					<split pos="left">
						<feature> 3 </feature>
						<threshold> 3.1298227 </threshold>
						<split pos="left">
							<feature> 3 </feature>
							<threshold> 2.7584891 </threshold>
							<split pos="left">
								<feature> 1 </feature>
								<threshold> 2.4784105 </threshold>
								<split pos="left">
									<feature> 1 </feature>
									<threshold> 2.0971172 </threshold>
									<split pos="left">
										<feature> 15 </feature>
										<threshold> 26.163536 </threshold>
										<split pos="left">
											<feature> 23 </feature>
											<threshold> 33.449253 </threshold>
											<split pos="left">
												<output> -0.05930242 </output>
											</split>
											<split pos="right">
												<output> 0.35409373 </output>
											</split>
										</split>
										<split pos="right">
											<output> 0.94996035 </output>
										</split>
									</split>
									<split pos="right">
										<output> 0.38274655 </output>
									</split>
								</split>
								<split pos="right">
									<output> -3.634272 </output>
								</split>
							</split>
							<split pos="right">
								<output> 0.6687265 </output>
							</split>
						</split>
						<split pos="right">
							<output> -2.2772043 </output>
						</split>
					</split>
					<split pos="right">
						<output> 1.0108305 </output>
					</split>
				</split>
				<split pos="right">
					<output> 0.537229 </output>
				</split>
			</split>
			<split pos="right">
				<output> 0.34357682 </output>
			</split>
		</split>
	</tree>
	<tree id="43" weight="0.1">
		<split>
			<feature> 2 </feature>
			<threshold> 4.510347 </threshold>
			<split pos="left">
				<feature> 6 </feature>
				<threshold> 955210.7 </threshold>
				<split pos="left">
					<feature> 23 </feature>
					<threshold> 59.093678 </threshold>
					<split pos="left">
						<feature> 1 </feature>
						<threshold> 2.3317592 </threshold>
						<split pos="left">
							<feature> 23 </feature>
							<threshold> 47.943928 </threshold>
							<split pos="left">
								<feature> 34 </feature>
								<threshold> 1895.6797 </threshold>
								<split pos="left">
									<output> -0.21873847 </output>
								</split>
								<split pos="right">
									<feature> 1 </feature>
									<threshold> 2.0091264 </threshold>
									<split pos="left">
										<feature> 1 </feature>
										<threshold> 1.9797962 </threshold>
										<split pos="left">
											<feature> 22 </feature>
											<threshold> 13.387139 </threshold>
											<split pos="left">
												<output> 0.17778847 </output>
											</split>
											<split pos="right">
												<output> -3.1490474 </output>
											</split>
										</split>
										<split pos="right">
											<output> -9.548306 </output>
										</split>
									</split>
									<split pos="right">
										<output> 0.73598254 </output>
									</split>
								</split>
							</split>
							<split pos="right">
								<output> 0.87850714 </output>
							</split>
						</split>
						<split pos="right">
							<output> 0.5180687 </output>
						</split>
					</split>
					<split pos="right">
						<output> -1.4994024 </output>
					</split>
				</split>
				<split pos="right">
					<output> -0.8208554 </output>
				</split>
			</split>
			<split pos="right">
				<output> 0.3898672 </output>
			</split>
		</split>
	</tree>
	<tree id="44" weight="0.1">
		<split>
			<feature> 6 </feature>
			<threshold> 955210.7 </threshold>
			<split pos="left">
				<feature> 7 </feature>
				<threshold> 6078836.5 </threshold>
				<split pos="left">
					<feature> 3 </feature>
					<threshold> 1.9804566 </threshold>
					<split pos="left">
						<feature> 29 </feature>
						<threshold> 11.844384 </threshold>
						<split pos="left">
							<feature> 1 </feature>
							<threshold> 1.7011588 </threshold>
							<split pos="left">
								<feature> 27 </feature>
								<threshold> 4.8959565 </threshold>
								<split pos="left">
									<output> -0.39427903 </output>
								</split>
								<split pos="right">
									<feature> 21 </feature>
									<threshold> 14.959338 </threshold>
									<split pos="left">
										<feature> 22 </feature>
										<threshold> 13.319184 </threshold>
										<split pos="left">
											<feature> 16 </feature>
											<threshold> 12.541681 </threshold>
											<split pos="left">
												<output> 0.03990184 </output>
											</split>
											<split pos="right">
												<output> 0.75677973 </output>
											</split>
										</split>
										<split pos="right">
											<output> 0.94776267 </output>
										</split>
									</split>
									<split pos="right">
										<output> 0.2727788 </output>
									</split>
								</split>
							</split>
							<split pos="right">
								<output> -0.90995574 </output>
							</split>
						</split>
						<split pos="right">
							<output> 0.77289 </output>
						</split>
					</split>
					<split pos="right">
						<output> 0.24693918 </output>
					</split>
				</split>
				<split pos="right">
					<output> 0.54280114 </output>
				</split>
			</split>
			<split pos="right">
				<output> 0.35135934 </output>
			</split>
		</split>
	</tree>
	<tree id="45" weight="0.1">
		<split>
			<feature> 17 </feature>
			<threshold> 30.422354 </threshold>
			<split pos="left">
				<feature> 7 </feature>
				<threshold> 5932358.5 </threshold>
				<split pos="left">
					<feature> 6 </feature>
					<threshold> 1013154.0 </threshold>
					<split pos="left">
						<feature> 2 </feature>
						<threshold> 7.2165685 </threshold>
						<split pos="left">
							<feature> 2 </feature>
							<threshold> 7.0430927 </threshold>
							<split pos="left">
								<feature> 27 </feature>
								<threshold> 9.444049 </threshold>
								<split pos="left">
									<feature> 21 </feature>
									<threshold> 18.699175 </threshold>
									<split pos="left">
										<feature> 23 </feature>
										<threshold> 22.299501 </threshold>
										<split pos="left">
											<feature> 2 </feature>
											<threshold> 5.3430305 </threshold>
											<split pos="left">
												<output> -0.07249312 </output>
											</split>
											<split pos="right">
												<output> -1.2939538 </output>
											</split>
										</split>
										<split pos="right">
											<output> -3.6559958 </output>
										</split>
									</split>
									<split pos="right">
										<output> 0.36181802 </output>
									</split>
								</split>
								<split pos="right">
									<output> 0.23774482 </output>
								</split>
							</split>
							<split pos="right">
								<output> 0.9236906 </output>
							</split>
						</split>
						<split pos="right">
							<output> -3.2697608 </output>
						</split>
					</split>
					<split pos="right">
						<output> 1.0812018 </output>
					</split>
				</split>
				<split pos="right">
					<output> 0.4566585 </output>
				</split>
			</split>
			<split pos="right">
				<output> 1.1101357 </output>
			</split>
		</split>
	</tree>
	<tree id="46" weight="0.1">
		<split>
			<feature> 6 </feature>
			<threshold> 955210.7 </threshold>
			<split pos="left">
				<feature> 7 </feature>
				<threshold> 3661949.8 </threshold>
				<split pos="left">
					<feature> 23 </feature>
					<threshold> 68.01348 </threshold>
					<split pos="left">
						<feature> 21 </feature>
						<threshold> 38.33332 </threshold>
						<split pos="left">
							<feature> 15 </feature>
							<threshold> 8.589022 </threshold>
							<split pos="left">
								<output> -0.6324057 </output>
							</split>
							<split pos="right">
								<feature> 5 </feature>
								<threshold> 106360.23 </threshold>
								<split pos="left">
									<output> 0.37211087 </output>
								</split>
								<split pos="right">
									<feature> 1 </feature>
									<threshold> 2.6983874 </threshold>
									<split pos="left">
										<feature> 1 </feature>
										<threshold> 2.5077407 </threshold>
										<split pos="left">
											<feature> 1 </feature>
											<threshold> 2.41975 </threshold>
											<split pos="left">
												<output> -0.021857457 </output>
											</split>
											<split pos="right">
												<output> -2.139806 </output>
											</split>
										</split>
										<split pos="right">
											<output> 0.9067407 </output>
										</split>
									</split>
									<split pos="right">
										<output> -2.698411 </output>
									</split>
								</split>
							</split>
						</split>
						<split pos="right">
							<output> -1.2770544 </output>
						</split>
					</split>
					<split pos="right">
						<output> 0.82627445 </output>
					</split>
				</split>
				<split pos="right">
					<output> 0.26223153 </output>
				</split>
			</split>
			<split pos="right">
				<output> 0.39991677 </output>
			</split>
		</split>
	</tree>
	<tree id="47" weight="0.1">
		<split>
			<feature> 21 </feature>
			<threshold> 18.699175 </threshold>
			<split pos="left">
				<feature> 6 </feature>
				<threshold> 1153041.4 </threshold>
				<split pos="left">
					<feature> 1 </feature>
					<threshold> 2.3757546 </threshold>
					<split pos="left">
						<feature> 2 </feature>
						<threshold> 6.904312 </threshold>
						<split pos="left">
							<feature> 2 </feature>
							<threshold> 5.516506 </threshold>
							<split pos="left">
								<feature> 6 </feature>
								<threshold> 955210.7 </threshold>
								<split pos="left">
									<feature> 16 </feature>
									<threshold> 20.237707 </threshold>
									<split pos="left">
										<feature> 34 </feature>
										<threshold> 1895.6797 </threshold>
										<split pos="left">
											<output> -0.1865087 </output>
										</split>
										<split pos="right">
											<feature> 3 </feature>
											<threshold> 2.4755683 </threshold>
											<split pos="left">
												<output> 0.14712776 </output>
											</split>
											<split pos="right">
												<output> 1.257647 </output>
											</split>
										</split>
									</split>
									<split pos="right">
										<output> -1.9189345 </output>
									</split>
								</split>
								<split pos="right">
									<output> 0.52697575 </output>
								</split>
							</split>
							<split pos="right">
								<output> -1.3502625 </output>
							</split>
						</split>
						<split pos="right">
							<output> 0.64769614 </output>
						</split>
					</split>
					<split pos="right">
						<output> 0.7591277 </output>
					</split>
				</split>
				<split pos="right">
					<output> -5.29481 </output>
				</split>
			</split>
			<split pos="right">
				<output> 0.22988756 </output>
			</split>
		</split>
	</tree>
	<tree id="48" weight="0.1">
		<split>
			<feature> 6 </feature>
			<threshold> 955210.7 </threshold>
			<split pos="left">
				<feature> 23 </feature>
				<threshold> 198.46556 </threshold>
				<split pos="left">
					<feature> 33 </feature>
					<threshold> 0.9977464 </threshold>
					<split pos="left">
						<feature> 7 </feature>
						<threshold> 5932358.5 </threshold>
						<split pos="left">
							<feature> 27 </feature>
							<threshold> 9.109629 </threshold>
							<split pos="left">
								<feature> 1 </feature>
								<threshold> 2.0091264 </threshold>
								<split pos="left">
									<feature> 23 </feature>
									<threshold> 22.299501 </threshold>
									<split pos="left">
										<output> 0.05594549 </output>
									</split>
									<split pos="right">
										<output> 0.30818415 </output>
									</split>
								</split>
								<split pos="right">
									<output> -1.4942229 </output>
								</split>
							</split>
							<split pos="right">
								<output> 0.38078916 </output>
							</split>
						</split>
						<split pos="right">
							<output> 0.62303585 </output>
						</split>
					</split>
					<split pos="right">
						<feature> 23 </feature>
						<threshold> 28.989351 </threshold>
						<split pos="left">
							<feature> 11 </feature>
							<threshold> 2.5096994E7 </threshold>
							<split pos="left">
								<output> -0.13760996 </output>
							</split>
							<split pos="right">
								<output> -1.9862852 </output>
							</split>
						</split>
						<split pos="right">
							<output> -1.5112115 </output>
						</split>
					</split>
				</split>
				<split pos="right">
					<output> -2.8552735 </output>
				</split>
			</split>
			<split pos="right">
				<output> 0.405771 </output>
			</split>
		</split>
	</tree>
	<tree id="49" weight="0.1">
		<split>
			<feature> 2 </feature>
			<threshold> 4.822603 </threshold>
			<split pos="left">
				<feature> 21 </feature>
				<threshold> 79.471535 </threshold>
				<split pos="left">
					<feature> 23 </feature>
					<threshold> 85.85308 </threshold>
					<split pos="left">
						<feature> 21 </feature>
						<threshold> 49.552834 </threshold>
						<split pos="left">
							<feature> 21 </feature>
							<threshold> 42.07316 </threshold>
							<split pos="left">
								<feature> 21 </feature>
								<threshold> 41.1382 </threshold>
								<split pos="left">
									<feature> 21 </feature>
									<threshold> 40.20324 </threshold>
									<split pos="left">
										<feature> 7 </feature>
										<threshold> 5932358.5 </threshold>
										<split pos="left">
											<feature> 11 </feature>
											<threshold> 1.4639913E7 </threshold>
											<split pos="left">
												<output> -0.003022451 </output>
											</split>
											<split pos="right">
												<output> -0.92718345 </output>
											</split>
										</split>
										<split pos="right">
											<output> 0.39367914 </output>
										</split>
									</split>
									<split pos="right">
										<output> 1.075071 </output>
									</split>
								</split>
								<split pos="right">
									<output> -9.045601 </output>
								</split>
							</split>
							<split pos="right">
								<output> 1.0701787 </output>
							</split>
						</split>
						<split pos="right">
							<output> -3.559277 </output>
						</split>
					</split>
					<split pos="right">
						<output> 1.0754482 </output>
					</split>
				</split>
				<split pos="right">
					<output> -3.1074753 </output>
				</split>
			</split>
			<split pos="right">
				<output> 0.37862593 </output>
			</split>
		</split>
	</tree>
	<tree id="50" weight="0.1">
		<split>
			<feature> 7 </feature>
			<threshold> 3808427.8 </threshold>
			<split pos="left">
				<feature> 7 </feature>
				<threshold> 3735188.8 </threshold>
				<split pos="left">
					<feature> 7 </feature>
					<threshold> 3661949.8 </threshold>
					<split pos="left">
						<feature> 2 </feature>
						<threshold> 4.822603 </threshold>
						<split pos="left">
							<feature> 1 </feature>
							<threshold> 2.6103966 </threshold>
							<split pos="left">
								<feature> 21 </feature>
								<threshold> 20.569094 </threshold>
								<split pos="left">
									<feature> 23 </feature>
									<threshold> 22.299501 </threshold>
									<split pos="left">
										<feature> 1 </feature>
										<threshold> 2.4637454 </threshold>
										<split pos="left">
											<feature> 1 </feature>
											<threshold> 2.41975 </threshold>
											<split pos="left">
												<output> -0.06644314 </output>
											</split>
											<split pos="right">
												<output> -7.294414 </output>
											</split>
										</split>
										<split pos="right">
											<output> 1.0527267 </output>
										</split>
									</split>
									<split pos="right">
										<output> -1.1434424 </output>
									</split>
								</split>
								<split pos="right">
									<output> 0.2912832 </output>
								</split>
							</split>
							<split pos="right">
								<output> -7.5659256 </output>
							</split>
						</split>
						<split pos="right">
							<output> 0.31133634 </output>
						</split>
					</split>
					<split pos="right">
						<output> 0.60342467 </output>
					</split>
				</split>
				<split pos="right">
					<output> -1.8339843 </output>
				</split>
			</split>
			<split pos="right">
				<output> 0.35221672 </output>
			</split>
		</split>
	</tree>
	<tree id="51" weight="0.1">
		<split>
			<feature> 21 </feature>
			<threshold> 17.764215 </threshold>
			<split pos="left">
				<feature> 1 </feature>
				<threshold> 2.3757546 </threshold>
				<split pos="left">
					<feature> 1 </feature>
					<threshold> 2.302429 </threshold>
					<split pos="left">
						<feature> 2 </feature>
						<threshold> 7.320654 </threshold>
						<split pos="left">
							<feature> 2 </feature>
							<threshold> 6.904312 </threshold>
							<split pos="left">
								<feature> 15 </feature>
								<threshold> 8.589022 </threshold>
								<split pos="left">
									<output> -0.63535166 </output>
								</split>
								<split pos="right">
									<feature> 5 </feature>
									<threshold> 106360.23 </threshold>
									<split pos="left">
										<output> 0.35304973 </output>
									</split>
									<split pos="right">
										<feature> 22 </feature>
										<threshold> 14.47442 </threshold>
										<split pos="left">
											<feature> 22 </feature>
											<threshold> 13.387139 </threshold>
											<split pos="left">
												<output> -0.0027452575 </output>
											</split>
											<split pos="right">
												<output> 0.9632278 </output>
											</split>
										</split>
										<split pos="right">
											<output> -4.6791945 </output>
										</split>
									</split>
								</split>
							</split>
							<split pos="right">
								<output> 0.8300682 </output>
							</split>
						</split>
						<split pos="right">
							<output> -4.3373003 </output>
						</split>
					</split>
					<split pos="right">
						<output> -3.888478 </output>
					</split>
				</split>
				<split pos="right">
					<output> 0.9224383 </output>
				</split>
			</split>
			<split pos="right">
				<output> 0.21231824 </output>
			</split>
		</split>
	</tree>
	<tree id="52" weight="0.1">
		<split>
			<feature> 6 </feature>
			<threshold> 955210.7 </threshold>
			<split pos="left">
				<feature> 3 </feature>
				<threshold> 1.9627739 </threshold>
				<split pos="left">
					<feature> 21 </feature>
					<threshold> 18.699175 </threshold>
					<split pos="left">
						<feature> 22 </feature>
						<threshold> 6.1839075 </threshold>
						<split pos="left">
							<feature> 1 </feature>
							<threshold> 1.8624752 </threshold>
							<split pos="left">
								<feature> 5 </feature>
								<threshold> 1382683.1 </threshold>
								<split pos="left">
									<output> -0.45568103 </output>
								</split>
								<split pos="right">
									<feature> 2 </feature>
									<threshold> 4.961384 </threshold>
									<split pos="left">
										<feature> 27 </feature>
										<threshold> 9.577817 </threshold>
										<split pos="left">
											<feature> 21 </feature>
											<threshold> 13.089421 </threshold>
											<split pos="left">
												<output> 0.10248966 </output>
											</split>
											<split pos="right">
												<output> -0.35294694 </output>
											</split>
										</split>
										<split pos="right">
											<output> 0.4431555 </output>
										</split>
									</split>
									<split pos="right">
										<output> -1.1013623 </output>
									</split>
								</split>
							</split>
							<split pos="right">
								<output> -2.7058043 </output>
							</split>
						</split>
						<split pos="right">
							<output> 0.26075873 </output>
						</split>
					</split>
					<split pos="right">
						<output> -0.42289948 </output>
					</split>
				</split>
				<split pos="right">
					<output> 0.205631 </output>
				</split>
			</split>
			<split pos="right">
				<output> 0.351532 </output>
			</split>
		</split>
	</tree>
	<tree id="53" weight="0.1">
		<split>
			<feature> 17 </feature>
			<threshold> 30.422354 </threshold>
			<split pos="left">
				<feature> 2 </feature>
				<threshold> 4.510347 </threshold>
				<split pos="left">
					<feature> 6 </feature>
					<threshold> 955210.7 </threshold>
					<split pos="left">
						<feature> 1 </feature>
						<threshold> 2.3317592 </threshold>
						<split pos="left">
							<feature> 1 </feature>
							<threshold> 2.1704428 </threshold>
							<split pos="left">
								<feature> 1 </feature>
								<threshold> 2.0971172 </threshold>
								<split pos="left">
									<feature> 1 </feature>
									<threshold> 2.0384567 </threshold>
									<split pos="left">
										<feature> 7 </feature>
										<threshold> 5932358.5 </threshold>
										<split pos="left">
											<feature> 11 </feature>
											<threshold> 1.2548497E7 </threshold>
											<split pos="left">
												<output> 0.0019068774 </output>
											</split>
											<split pos="right">
												<output> -0.8305757 </output>
											</split>
										</split>
										<split pos="right">
											<output> 0.41529298 </output>
										</split>
									</split>
									<split pos="right">
										<output> -0.88864136 </output>
									</split>
								</split>
								<split pos="right">
									<output> 0.5692397 </output>
								</split>
							</split>
							<split pos="right">
								<output> -0.9803417 </output>
							</split>
						</split>
						<split pos="right">
							<output> 0.39463276 </output>
						</split>
					</split>
					<split pos="right">
						<output> -0.8582937 </output>
					</split>
				</split>
				<split pos="right">
					<output> 0.31148666 </output>
				</split>
			</split>
			<split pos="right">
				<output> 1.089773 </output>
			</split>
		</split>
	</tree>
	<tree id="54" weight="0.1">
		<split>
			<feature> 6 </feature>
			<threshold> 675436.0 </threshold>
			<split pos="left">
				<feature> 7 </feature>
				<threshold> 3368993.8 </threshold>
				<split pos="left">
					<feature> 1 </feature>
					<threshold> 2.1411126 </threshold>
					<split pos="left">
						<feature> 27 </feature>
						<threshold> 9.444049 </threshold>
						<split pos="left">
							<feature> 23 </feature>
							<threshold> 14.494676 </threshold>
							<split pos="left">
								<feature> 1 </feature>
								<threshold> 2.082452 </threshold>
								<split pos="left">
									<feature> 21 </feature>
									<threshold> 16.829256 </threshold>
									<split pos="left">
										<feature> 2 </feature>
										<threshold> 4.822603 </threshold>
										<split pos="left">
											<feature> 22 </feature>
											<threshold> 13.319184 </threshold>
											<split pos="left">
												<output> -0.08503615 </output>
											</split>
											<split pos="right">
												<output> 0.8069632 </output>
											</split>
										</split>
										<split pos="right">
											<output> 0.56788355 </output>
										</split>
									</split>
									<split pos="right">
										<output> -1.2208848 </output>
									</split>
								</split>
								<split pos="right">
									<output> 1.2887625 </output>
								</split>
							</split>
							<split pos="right">
								<output> -0.43832555 </output>
							</split>
						</split>
						<split pos="right">
							<output> 0.3355075 </output>
						</split>
					</split>
					<split pos="right">
						<output> -0.57193214 </output>
					</split>
				</split>
				<split pos="right">
					<output> 0.25149015 </output>
				</split>
			</split>
			<split pos="right">
				<output> 0.3211506 </output>
			</split>
		</split>
	</tree>
	<tree id="55" weight="0.1">
		<split>
			<feature> 21 </feature>
			<threshold> 17.764215 </threshold>
			<split pos="left">
				<feature> 1 </feature>
				<threshold> 2.3757546 </threshold>
				<split pos="left">
					<feature> 2 </feature>
					<threshold> 6.904312 </threshold>
					<split pos="left">
						<feature> 2 </feature>
						<threshold> 5.3430305 </threshold>
						<split pos="left">
							<feature> 6 </feature>
							<threshold> 955210.7 </threshold>
							<split pos="left">
								<feature> 33 </feature>
								<threshold> 0.991057 </threshold>
								<split pos="left">
									<output> 0.56245804 </output>
								</split>
								<split pos="right">
									<feature> 2 </feature>
									<threshold> 5.20425 </threshold>
									<split pos="left">
