## MART
## No. of trees = 1000
## No. of leaves = 10
## No. of threshold candidates = 256
## Learning rate = 0.1
## Stop early = 100

<ensemble>
	<tree id="1" weight="0.1">
		<split>
			<feature> 5 </feature>
			<threshold> 1914484.4 </threshold>
			<split pos="left">
				<feature> 7 </feature>
				<threshold> 1175790.0 </threshold>
				<split pos="left">
					<feature> 5 </feature>
					<threshold> 106360.24 </threshold>
					<split pos="left">
						<output> 0.47790697 </output>
					</split>
					<split pos="right">
						<output> 0.13137819 </output>
					</split>
				</split>
				<split pos="right">
					<output> 0.42557493 </output>
				</split>
			</split>
			<split pos="right">
				<feature> 7 </feature>
				<threshold> 1175790.0 </threshold>
				<split pos="left">
					<output> 0.44083527 </output>
				</split>
				<split pos="right">
					<feature> 27 </feature>
					<threshold> 15.5868845 </threshold>
					<split pos="left">
						<feature> 33 </feature>
						<threshold> 0.9996213 </threshold>
						<split pos="left">
							<feature> 28 </feature>
							<threshold> 3.7132607 </threshold>
							<split pos="left">
								<feature> 23 </feature>
								<threshold> 23.414476 </threshold>
								<split pos="left">
									<feature> 26 </feature>
									<threshold> 0.22433676 </threshold>
									<split pos="left">
										<output> 0.5802225 </output>
									</split>
									<split pos="right">
										<output> 0.827957 </output>
									</split>
								</split>
								<split pos="right">
									<output> 1.0119047 </output>
								</split>
							</split>
							<split pos="right">
								<output> 0.9469697 </output>
							</split>
						</split>
						<split pos="right">
							<output> 0.45524693 </output>
						</split>
					</split>
					<split pos="right">
						<output> 1.5526316 </output>
					</split>
				</split>
			</split>
		</split>
	</tree>
	<tree id="2" weight="0.1">
		<split>
			<feature> 5 </feature>
			<threshold> 2020844.6 </threshold>
			<split pos="left">
				<feature> 7 </feature>
				<threshold> 1175790.0 </threshold>
				<split pos="left">
					<feature> 27 </feature>
					<threshold> 6.4034576 </threshold>
					<split pos="left">
						<feature> 26 </feature>
						<threshold> 0.0 </threshold>
						<split pos="left">
							<output> 0.086215675 </output>
						</split>
						<split pos="right">
							<output> 0.28624088 </output>
						</split>
					</split>
					<split pos="right">
						<output> 0.37655714 </output>
					</split>
				</split>
				<split pos="right">
					<feature> 21 </feature>
					<threshold> 6.953557 </threshold>
					<split pos="left">
						<output> 0.5915852 </output>
					</split>
					<split pos="right">
						<feature> 20 </feature>
						<threshold> 0.3379073 </threshold>
						<split pos="left">
							<output> 0.34728056 </output>
						</split>
						<split pos="right">
							<output> 0.714656 </output>
						</split>
					</split>
				</split>
			</split>
			<split pos="right">
				<feature> 21 </feature>
				<threshold> 16.249393 </threshold>
				<split pos="left">
					<feature> 7 </feature>
					<threshold> 1679700.0 </threshold>
					<split pos="left">
						<output> 0.41749814 </output>
					</split>
					<split pos="right">
						<feature> 11 </feature>
						<threshold> 6961822.5 </threshold>
						<split pos="left">
							<output> 0.5761568 </output>
						</split>
						<split pos="right">
							<output> 0.4265932 </output>
						</split>
					</split>
				</split>
				<split pos="right">
					<output> 0.7932883 </output>
				</split>
			</split>
		</split>
	</tree>
	<tree id="3" weight="0.1">
		<split>
			<feature> 5 </feature>
			<threshold> 1914484.4 </threshold>
			<split pos="left">
				<feature> 7 </feature>
				<threshold> 1175790.0 </threshold>
				<split pos="left">
					<feature> 27 </feature>
					<threshold> 6.809804 </threshold>
					<split pos="left">
						<feature> 34 </feature>
						<threshold> 3708.3594 </threshold>
						<split pos="left">
							<feature> 33 </feature>
							<threshold> 0.99239427 </threshold>
							<split pos="left">
								<output> 0.2553203 </output>
							</split>
							<split pos="right">
								<output> 0.075357 </output>
							</split>
						</split>
						<split pos="right">
							<output> 0.3992503 </output>
						</split>
					</split>
					<split pos="right">
						<output> 0.3852693 </output>
					</split>
				</split>
				<split pos="right">
					<output> 0.34383774 </output>
				</split>
			</split>
			<split pos="right">
				<feature> 1 </feature>
				<threshold> 1.7801708 </threshold>
				<split pos="left">
					<feature> 7 </feature>
					<threshold> 1679700.0 </threshold>
					<split pos="left">
						<output> 0.3588237 </output>
					</split>
					<split pos="right">
						<feature> 11 </feature>
						<threshold> 6961822.5 </threshold>
						<split pos="left">
							<feature> 34 </feature>
							<threshold> 5521.039 </threshold>
							<split pos="left">
								<output> 0.4987615 </output>
							</split>
							<split pos="right">
								<output> 1.0659423 </output>
							</split>
						</split>
						<split pos="right">
							<output> 0.37824067 </output>
						</split>
					</split>
				</split>
				<split pos="right">
					<output> 0.66612977 </output>
				</split>
			</split>
		</split>
	</tree>
	<tree id="4" weight="0.1">
		<split>
			<feature> 5 </feature>
			<threshold> 2020844.6 </threshold>
			<split pos="left">
				<feature> 7 </feature>
				<threshold> 1175790.0 </threshold>
				<split pos="left">
					<feature> 5 </feature>
					<threshold> 106360.24 </threshold>
					<split pos="left">
						<output> 0.38424706 </output>
					</split>
					<split pos="right">
						<output> 0.0937513 </output>
					</split>
				</split>
				<split pos="right">
					<output> 0.3150097 </output>
				</split>
			</split>
			<split pos="right">
				<feature> 27 </feature>
				<threshold> 15.830692 </threshold>
				<split pos="left">
					<feature> 28 </feature>
					<threshold> 4.2722454 </threshold>
					<split pos="left">
						<feature> 1 </feature>
						<threshold> 0.73835886 </threshold>
						<split pos="left">
							<output> 0.6360211 </output>
						</split>
						<split pos="right">
							<feature> 7 </feature>
							<threshold> 1511730.0 </threshold>
							<split pos="left">
								<output> 0.32182068 </output>
							</split>
							<split pos="right">
								<feature> 33 </feature>
								<threshold> 0.9996213 </threshold>
								<split pos="left">
									<feature> 2 </feature>
									<threshold> 2.7570102 </threshold>
									<split pos="left">
										<output> 0.43189138 </output>
									</split>
									<split pos="right">
										<output> 0.61514163 </output>
									</split>
								</split>
								<split pos="right">
									<output> 0.30175123 </output>
								</split>
							</split>
						</split>
					</split>
					<split pos="right">
						<output> 0.73877054 </output>
					</split>
				</split>
				<split pos="right">
					<output> 1.320673 </output>
				</split>
			</split>
		</split>
	</tree>
	<tree id="5" weight="0.1">
		<split>
			<feature> 5 </feature>
			<threshold> 2020844.6 </threshold>
			<split pos="left">
				<feature> 7 </feature>
				<threshold> 1175790.0 </threshold>
				<split pos="left">
					<feature> 27 </feature>
					<threshold> 6.3221884 </threshold>
					<split pos="left">
						<output> 0.073512524 </output>
					</split>
					<split pos="right">
						<output> 0.28965622 </output>
					</split>
				</split>
				<split pos="right">
					<output> 0.28351337 </output>
				</split>
			</split>
			<split pos="right">
				<feature> 27 </feature>
				<threshold> 15.830692 </threshold>
				<split pos="left">
					<feature> 1 </feature>
					<threshold> 1.7801708 </threshold>
					<split pos="left">
						<feature> 2 </feature>
						<threshold> 4.0961275 </threshold>
						<split pos="left">
							<feature> 1 </feature>
							<threshold> 0.73835886 </threshold>
							<split pos="left">
								<output> 0.57342815 </output>
							</split>
							<split pos="right">
								<feature> 7 </feature>
								<threshold> 1735690.0 </threshold>
								<split pos="left">
									<output> 0.28208846 </output>
								</split>
								<split pos="right">
									<feature> 11 </feature>
									<threshold> 6961822.5 </threshold>
									<split pos="left">
										<output> 0.42159337 </output>
									</split>
									<split pos="right">
										<output> 0.2913594 </output>
									</split>
								</split>
							</split>
						</split>
						<split pos="right">
							<output> 0.64855564 </output>
						</split>
					</split>
					<split pos="right">
						<output> 0.522573 </output>
					</split>
				</split>
				<split pos="right">
					<output> 1.1886055 </output>
				</split>
			</split>
		</split>
	</tree>
	<tree id="6" weight="0.1">
		<split>
			<feature> 5 </feature>
			<threshold> 1914484.4 </threshold>
			<split pos="left">
				<feature> 27 </feature>
				<threshold> 6.4034576 </threshold>
				<split pos="left">
					<feature> 11 </feature>
					<threshold> 2983638.2 </threshold>
					<split pos="left">
						<feature> 34 </feature>
						<threshold> 1895.6797 </threshold>
						<split pos="left">
							<output> 0.052124333 </output>
						</split>
						<split pos="right">
							<output> 0.19550228 </output>
						</split>
					</split>
					<split pos="right">
						<output> 0.28899622 </output>
					</split>
				</split>
				<split pos="right">
					<output> 0.29108852 </output>
				</split>
			</split>
			<split pos="right">
				<feature> 28 </feature>
				<threshold> 3.154276 </threshold>
				<split pos="left">
					<feature> 1 </feature>
					<threshold> 0.72099537 </threshold>
					<split pos="left">
						<output> 0.55686194 </output>
					</split>
					<split pos="right">
						<feature> 7 </feature>
						<threshold> 1063810.0 </threshold>
						<split pos="left">
							<output> 0.24280259 </output>
						</split>
						<split pos="right">
							<feature> 33 </feature>
							<threshold> 0.9981503 </threshold>
							<split pos="left">
								<feature> 27 </feature>
								<threshold> 14.449115 </threshold>
								<split pos="left">
									<output> 0.36390314 </output>
								</split>
								<split pos="right">
									<output> 1.0062801 </output>
								</split>
							</split>
							<split pos="right">
								<output> 0.26125497 </output>
							</split>
						</split>
					</split>
				</split>
				<split pos="right">
					<output> 0.55785793 </output>
				</split>
			</split>
		</split>
	</tree>
	<tree id="7" weight="0.1">
		<split>
			<feature> 7 </feature>
			<threshold> 1455740.0 </threshold>
			<split pos="left">
				<feature> 34 </feature>
				<threshold> 1895.6797 </threshold>
				<split pos="left">
					<output> 0.08042915 </output>
				</split>
				<split pos="right">
					<output> 0.24921972 </output>
				</split>
			</split>
			<split pos="right">
				<feature> 27 </feature>
				<threshold> 15.5868845 </threshold>
				<split pos="left">
					<feature> 15 </feature>
					<threshold> 8.2072 </threshold>
					<split pos="left">
						<output> 0.6699071 </output>
					</split>
					<split pos="right">
						<feature> 23 </feature>
						<threshold> 23.414476 </threshold>
						<split pos="left">
							<feature> 15 </feature>
							<threshold> 27.10678 </threshold>
							<split pos="left">
								<feature> 1 </feature>
								<threshold> 2.3705313 </threshold>
								<split pos="left">
									<feature> 1 </feature>
									<threshold> 1.7801708 </threshold>
									<split pos="left">
										<feature> 33 </feature>
										<threshold> 0.9996213 </threshold>
										<split pos="left">
											<output> 0.30227795 </output>
										</split>
										<split pos="right">
											<output> 0.22628221 </output>
										</split>
									</split>
									<split pos="right">
										<output> 0.46359348 </output>
									</split>
								</split>
								<split pos="right">
									<output> 1.3953292 </output>
								</split>
							</split>
							<split pos="right">
								<output> -0.1209604 </output>
							</split>
						</split>
						<split pos="right">
							<output> 0.63320076 </output>
						</split>
					</split>
				</split>
				<split pos="right">
					<output> 1.033392 </output>
				</split>
			</split>
		</split>
	</tree>
	<tree id="8" weight="0.1">
		<split>
			<feature> 5 </feature>
			<threshold> 2020844.6 </threshold>
			<split pos="left">
				<feature> 7 </feature>
				<threshold> 1175790.0 </threshold>
				<split pos="left">
					<feature> 34 </feature>
					<threshold> 3708.3594 </threshold>
					<split pos="left">
						<output> 0.057761353 </output>
					</split>
					<split pos="right">
						<output> 0.3932237 </output>
					</split>
				</split>
				<split pos="right">
					<output> 0.21127583 </output>
				</split>
			</split>
			<split pos="right">
				<feature> 21 </feature>
				<threshold> 16.249393 </threshold>
				<split pos="left">
					<feature> 27 </feature>
					<threshold> 4.046649 </threshold>
					<split pos="left">
						<output> 0.35385343 </output>
					</split>
					<split pos="right">
						<feature> 1 </feature>
						<threshold> 0.77308583 </threshold>
						<split pos="left">
							<output> 0.4670925 </output>
						</split>
						<split pos="right">
							<feature> 2 </feature>
							<threshold> 4.0961275 </threshold>
							<split pos="left">
								<feature> 17 </feature>
								<threshold> 21.927694 </threshold>
								<split pos="left">
									<feature> 1 </feature>
									<threshold> 1.7801708 </threshold>
									<split pos="left">
										<output> 0.22717407 </output>
									</split>
									<split pos="right">
										<output> 0.5909673 </output>
									</split>
								</split>
								<split pos="right">
									<output> -0.13996753 </output>
								</split>
							</split>
							<split pos="right">
								<output> 0.46712402 </output>
							</split>
						</split>
					</split>
				</split>
				<split pos="right">
					<output> 0.4555913 </output>
				</split>
			</split>
		</split>
	</tree>
	<tree id="9" weight="0.1">
		<split>
			<feature> 7 </feature>
			<threshold> 1455740.0 </threshold>
			<split pos="left">
				<feature> 34 </feature>
				<threshold> 1895.6797 </threshold>
				<split pos="left">
					<output> 0.06336224 </output>
				</split>
				<split pos="right">
					<output> 0.20247577 </output>
				</split>
			</split>
			<split pos="right">
				<feature> 27 </feature>
				<threshold> 15.5868845 </threshold>
				<split pos="left">
					<feature> 15 </feature>
					<threshold> 8.2072 </threshold>
					<split pos="left">
						<output> 0.57585996 </output>
					</split>
					<split pos="right">
						<feature> 26 </feature>
						<threshold> 0.22433676 </threshold>
						<split pos="left">
							<feature> 15 </feature>
							<threshold> 27.622221 </threshold>
							<split pos="left">
								<feature> 1 </feature>
								<threshold> 2.3010771 </threshold>
								<split pos="left">
									<feature> 25 </feature>
									<threshold> 16.80043 </threshold>
									<split pos="left">
										<feature> 29 </feature>
										<threshold> 12.6581745 </threshold>
										<split pos="left">
											<output> 0.22800426 </output>
										</split>
										<split pos="right">
											<output> 0.8397041 </output>
										</split>
									</split>
									<split pos="right">
										<output> -0.122876555 </output>
									</split>
								</split>
								<split pos="right">
									<output> 1.0972649 </output>
								</split>
							</split>
							<split pos="right">
								<output> -0.15913044 </output>
							</split>
						</split>
						<split pos="right">
							<output> 0.41377226 </output>
						</split>
					</split>
				</split>
				<split pos="right">
					<output> 0.8906679 </output>
				</split>
			</split>
		</split>
	</tree>
	<tree id="10" weight="0.1">
		<split>
			<feature> 5 </feature>
			<threshold> 2020844.6 </threshold>
			<split pos="left">
				<feature> 27 </feature>
				<threshold> 6.4034576 </threshold>
				<split pos="left">
					<output> 0.061964896 </output>
				</split>
				<split pos="right">
					<output> 0.21509503 </output>
				</split>
			</split>
			<split pos="right">
				<feature> 28 </feature>
				<threshold> 4.2722454 </threshold>
				<split pos="left">
					<feature> 27 </feature>
					<threshold> 17.781176 </threshold>
					<split pos="left">
						<feature> 13 </feature>
						<threshold> 19.067223 </threshold>
						<split pos="left">
							<feature> 3 </feature>
							<threshold> 3.1619527 </threshold>
							<split pos="left">
								<feature> 23 </feature>
								<threshold> 23.414476 </threshold>
								<split pos="left">
									<feature> 27 </feature>
									<threshold> 4.046649 </threshold>
									<split pos="left">
										<output> 0.29887882 </output>
									</split>
									<split pos="right">
										<feature> 1 </feature>
										<threshold> 0.77308583 </threshold>
										<split pos="left">
											<output> 0.39297116 </output>
										</split>
										<split pos="right">
											<output> 0.19330642 </output>
										</split>
									</split>
								</split>
								<split pos="right">
									<output> 0.54141754 </output>
								</split>
							</split>
							<split pos="right">
								<output> -0.52044755 </output>
							</split>
						</split>
						<split pos="right">
							<output> -0.18870597 </output>
						</split>
					</split>
					<split pos="right">
						<output> 0.90529484 </output>
					</split>
				</split>
				<split pos="right">
					<output> 0.48666286 </output>
				</split>
			</split>
		</split>
	</tree>
	<tree id="11" weight="0.1">
		<split>
			<feature> 7 </feature>
			<threshold> 1175790.0 </threshold>
			<split pos="left">
				<feature> 34 </feature>
				<threshold> 1895.6797 </threshold>
				<split pos="left">
					<output> 0.029702866 </output>
				</split>
				<split pos="right">
					<output> 0.17183656 </output>
				</split>
			</split>
			<split pos="right">
				<feature> 21 </feature>
				<threshold> 6.953557 </threshold>
				<split pos="left">
					<output> 0.33786523 </output>
				</split>
				<split pos="right">
					<feature> 27 </feature>
					<threshold> 15.5868845 </threshold>
					<split pos="left">
						<feature> 5 </feature>
						<threshold> 1595403.6 </threshold>
						<split pos="left">
							<output> 0.09979928 </output>
						</split>
						<split pos="right">
							<feature> 26 </feature>
							<threshold> 0.22433676 </threshold>
							<split pos="left">
								<feature> 33 </feature>
								<threshold> 0.9980224 </threshold>
								<split pos="left">
									<feature> 22 </feature>
									<threshold> 5.8255897 </threshold>
									<split pos="left">
										<feature> 34 </feature>
										<threshold> 7333.7188 </threshold>
										<split pos="left">
											<output> 0.19261566 </output>
										</split>
										<split pos="right">
											<output> 0.5149721 </output>
										</split>
									</split>
									<split pos="right">
										<output> 0.399281 </output>
									</split>
								</split>
								<split pos="right">
									<output> 0.13248883 </output>
								</split>
							</split>
							<split pos="right">
								<output> 0.39750963 </output>
							</split>
						</split>
					</split>
					<split pos="right">
						<output> 0.7537593 </output>
					</split>
				</split>
			</split>
		</split>
	</tree>
	<tree id="12" weight="0.1">
		<split>
			<feature> 7 </feature>
			<threshold> 1175790.0 </threshold>
			<split pos="left">
				<feature> 34 </feature>
				<threshold> 1895.6797 </threshold>
				<split pos="left">
					<feature> 15 </feature>
					<threshold> 14.392537 </threshold>
					<split pos="left">
						<output> 0.011564058 </output>
					</split>
					<split pos="right">
						<output> 0.23554508 </output>
					</split>
				</split>
				<split pos="right">
					<output> 0.15465094 </output>
				</split>
			</split>
			<split pos="right">
				<feature> 15 </feature>
				<threshold> 8.2072 </threshold>
				<split pos="left">
					<output> 0.50621665 </output>
				</split>
				<split pos="right">
					<feature> 27 </feature>
					<threshold> 15.5868845 </threshold>
					<split pos="left">
						<feature> 26 </feature>
						<threshold> 0.22433676 </threshold>
						<split pos="left">
							<feature> 5 </feature>
							<threshold> 1808124.1 </threshold>
							<split pos="left">
								<output> 0.11582072 </output>
							</split>
							<split pos="right">
								<feature> 33 </feature>
								<threshold> 0.9977026 </threshold>
								<split pos="left">
									<feature> 1 </feature>
									<threshold> 1.2939914 </threshold>
									<split pos="left">
										<output> 0.26248857 </output>
									</split>
									<split pos="right">
										<output> 0.16504231 </output>
									</split>
								</split>
								<split pos="right">
									<output> 0.1317194 </output>
								</split>
							</split>
						</split>
						<split pos="right">
							<output> 0.3175973 </output>
						</split>
					</split>
					<split pos="right">
						<output> 0.6783832 </output>
					</split>
				</split>
			</split>
		</split>
	</tree>
	<tree id="13" weight="0.1">
		<split>
			<feature> 7 </feature>
			<threshold> 1175790.0 </threshold>
			<split pos="left">
				<feature> 34 </feature>
				<threshold> 1895.6797 </threshold>
				<split pos="left">
					<feature> 15 </feature>
					<threshold> 14.392537 </threshold>
					<split pos="left">
						<output> 0.010408644 </output>
					</split>
					<split pos="right">
						<output> 0.21199067 </output>
					</split>
				</split>
				<split pos="right">
					<output> 0.13919027 </output>
				</split>
			</split>
			<split pos="right">
				<feature> 21 </feature>
				<threshold> 6.953557 </threshold>
				<split pos="left">
					<output> 0.28277263 </output>
				</split>
				<split pos="right">
					<feature> 15 </feature>
					<threshold> 14.736167 </threshold>
					<split pos="left">
						<feature> 25 </feature>
						<threshold> 24.94606 </threshold>
						<split pos="left">
							<feature> 2 </feature>
							<threshold> 3.5447261 </threshold>
							<split pos="left">
								<feature> 33 </feature>
								<threshold> 0.9907314 </threshold>
								<split pos="left">
									<output> 0.30092844 </output>
								</split>
								<split pos="right">
									<feature> 3 </feature>
									<threshold> 1.3847994 </threshold>
									<split pos="left">
										<output> 0.13100858 </output>
									</split>
									<split pos="right">
										<output> 0.031646393 </output>
									</split>
								</split>
							</split>
							<split pos="right">
								<output> 0.43957624 </output>
							</split>
						</split>
						<split pos="right">
							<output> 1.8302904 </output>
						</split>
					</split>
					<split pos="right">
						<output> 0.20072742 </output>
					</split>
				</split>
			</split>
		</split>
	</tree>
	<tree id="14" weight="0.1">
		<split>
			<feature> 7 </feature>
			<threshold> 951830.0 </threshold>
			<split pos="left">
				<output> 0.046278514 </output>
			</split>
			<split pos="right">
				<feature> 11 </feature>
				<threshold> 994546.06 </threshold>
				<split pos="left">
					<output> 0.28629422 </output>
				</split>
				<split pos="right">
					<feature> 7 </feature>
					<threshold> 1175790.0 </threshold>
					<split pos="left">
						<output> -0.0027769823 </output>
					</split>
					<split pos="right">
						<feature> 21 </feature>
						<threshold> 6.0239735 </threshold>
						<split pos="left">
							<output> 0.39745104 </output>
						</split>
						<split pos="right">
							<feature> 28 </feature>
							<threshold> 3.7132607 </threshold>
							<split pos="left">
								<feature> 3 </feature>
								<threshold> 3.115793 </threshold>
								<split pos="left">
									<feature> 27 </feature>
									<threshold> 14.692923 </threshold>
									<split pos="left">
										<feature> 5 </feature>
										<threshold> 1595403.6 </threshold>
										<split pos="left">
											<output> 0.07089651 </output>
										</split>
										<split pos="right">
											<feature> 11 </feature>
											<threshold> 1.0940007E7 </threshold>
											<split pos="left">
												<output> 0.15633987 </output>
											</split>
											<split pos="right">
												<output> 0.054390334 </output>
											</split>
										</split>
									</split>
									<split pos="right">
										<output> 0.72385526 </output>
									</split>
								</split>
								<split pos="right">
									<output> -0.4565767 </output>
								</split>
							</split>
							<split pos="right">
								<output> 0.32387516 </output>
							</split>
						</split>
					</split>
				</split>
			</split>
		</split>
	</tree>
	<tree id="15" weight="0.1">
		<split>
			<feature> 5 </feature>
			<threshold> 2020844.6 </threshold>
			<split pos="left">
				<feature> 26 </feature>
				<threshold> 0.0 </threshold>
				<split pos="left">
					<feature> 7 </feature>
					<threshold> 951830.0 </threshold>
					<split pos="left">
						<output> -0.009219479 </output>
					</split>
					<split pos="right">
						<output> 0.08924547 </output>
					</split>
				</split>
				<split pos="right">
					<output> 0.21236645 </output>
				</split>
			</split>
			<split pos="right">
				<feature> 3 </feature>
				<threshold> 3.5312307 </threshold>
				<split pos="left">
					<feature> 27 </feature>
					<threshold> 15.830692 </threshold>
					<split pos="left">
						<feature> 13 </feature>
						<threshold> 19.067223 </threshold>
						<split pos="left">
							<feature> 31 </feature>
							<threshold> 0.0 </threshold>
							<split pos="left">
								<feature> 15 </feature>
								<threshold> 26.24771 </threshold>
								<split pos="left">
									<feature> 1 </feature>
									<threshold> 2.1968958 </threshold>
									<split pos="left">
										<output> 0.119544074 </output>
									</split>
									<split pos="right">
										<output> 1.0936047 </output>
									</split>
								</split>
								<split pos="right">
									<output> -0.2721862 </output>
								</split>
							</split>
							<split pos="right">
								<output> 0.18821408 </output>
							</split>
						</split>
						<split pos="right">
							<output> -0.25702605 </output>
						</split>
					</split>
					<split pos="right">
						<output> 0.81322426 </output>
					</split>
				</split>
				<split pos="right">
					<output> -0.72814363 </output>
				</split>
			</split>
		</split>
	</tree>
	<tree id="16" weight="0.1">
		<split>
			<feature> 27 </feature>
			<threshold> 6.4034576 </threshold>
			<split pos="left">
				<feature> 5 </feature>
				<threshold> 2446285.5 </threshold>
				<split pos="left">
					<feature> 11 </feature>
					<threshold> 2983638.2 </threshold>
					<split pos="left">
						<feature> 20 </feature>
						<threshold> 0.0 </threshold>
						<split pos="left">
							<feature> 9 </feature>
							<threshold> 8867927.0 </threshold>
							<split pos="left">
								<feature> 33 </feature>
								<threshold> 0.99239427 </threshold>
								<split pos="left">
									<output> 0.0659531 </output>
								</split>
								<split pos="right">
									<output> -0.016662916 </output>
								</split>
							</split>
							<split pos="right">
								<output> 0.20255595 </output>
							</split>
						</split>
						<split pos="right">
							<output> 0.111120574 </output>
						</split>
					</split>
					<split pos="right">
						<output> 0.11987024 </output>
					</split>
				</split>
				<split pos="right">
					<output> 0.14635195 </output>
				</split>
			</split>
			<split pos="right">
				<feature> 5 </feature>
				<threshold> 106360.24 </threshold>
				<split pos="left">
					<output> 1.5327033 </output>
				</split>
				<split pos="right">
					<feature> 1 </feature>
					<threshold> 0.5473605 </threshold>
					<split pos="left">
						<output> 1.5968788 </output>
					</split>
					<split pos="right">
						<feature> 33 </feature>
						<threshold> 0.998534 </threshold>
						<split pos="left">
							<output> 0.169783 </output>
						</split>
						<split pos="right">
							<output> 0.055487037 </output>
						</split>
					</split>
				</split>
			</split>
		</split>
	</tree>
	<tree id="17" weight="0.1">
		<split>
			<feature> 27 </feature>
			<threshold> 6.4034576 </threshold>
			<split pos="left">
				<feature> 5 </feature>
				<threshold> 2446285.5 </threshold>
				<split pos="left">
					<feature> 11 </feature>
					<threshold> 2983638.2 </threshold>
					<split pos="left">
						<feature> 26 </feature>
						<threshold> 9.085635 </threshold>
						<split pos="left">
							<feature> 9 </feature>
							<threshold> 8867927.0 </threshold>
							<split pos="left">
								<feature> 15 </feature>
								<threshold> 8.89446 </threshold>
								<split pos="left">
									<output> -0.048151754 </output>
								</split>
								<split pos="right">
									<output> 0.020549947 </output>
								</split>
							</split>
							<split pos="right">
								<output> 0.17424686 </output>
							</split>
						</split>
						<split pos="right">
							<output> 0.29589063 </output>
						</split>
					</split>
					<split pos="right">
						<output> 0.10788364 </output>
					</split>
				</split>
				<split pos="right">
					<output> 0.13171276 </output>
				</split>
			</split>
			<split pos="right">
				<feature> 5 </feature>
				<threshold> 106360.24 </threshold>
				<split pos="left">
					<output> 1.3794314 </output>
				</split>
				<split pos="right">
					<feature> 1 </feature>
					<threshold> 0.5473605 </threshold>
					<split pos="left">
						<output> 1.4371912 </output>
					</split>
					<split pos="right">
						<feature> 33 </feature>
						<threshold> 0.998534 </threshold>
						<split pos="left">
							<output> 0.15280509 </output>
						</split>
						<split pos="right">
							<output> 0.049937338 </output>
						</split>
					</split>
				</split>
			</split>
		</split>
	</tree>
	<tree id="18" weight="0.1">
		<split>
			<feature> 26 </feature>
			<threshold> 0.0 </threshold>
			<split pos="left">
				<feature> 7 </feature>
				<threshold> 951830.0 </threshold>
				<split pos="left">
					<output> 0.013835628 </output>
				</split>
				<split pos="right">
					<feature> 11 </feature>
					<threshold> 994546.06 </threshold>
					<split pos="left">
						<output> 0.22770676 </output>
					</split>
					<split pos="right">
						<feature> 5 </feature>
						<threshold> 1489043.4 </threshold>
						<split pos="left">
							<output> 0.0094338 </output>
						</split>
						<split pos="right">
							<feature> 1 </feature>
							<threshold> 0.89463025 </threshold>
							<split pos="left">
								<output> 0.20353185 </output>
							</split>
							<split pos="right">
								<feature> 25 </feature>
								<threshold> 19.51564 </threshold>
								<split pos="left">
									<feature> 1 </feature>
									<threshold> 3.4644349 </threshold>
									<split pos="left">
										<feature> 27 </feature>
										<threshold> 15.5868845 </threshold>
										<split pos="left">
											<feature> 15 </feature>
											<threshold> 27.622221 </threshold>
											<split pos="left">
												<output> 0.084155105 </output>
											</split>
											<split pos="right">
												<output> -0.28743613 </output>
											</split>
										</split>
										<split pos="right">
											<output> 0.6638546 </output>
										</split>
									</split>
									<split pos="right">
										<output> -0.91846216 </output>
									</split>
								</split>
								<split pos="right">
									<output> -0.33724767 </output>
								</split>
							</split>
						</split>
					</split>
				</split>
			</split>
			<split pos="right">
				<output> 0.17252012 </output>
			</split>
		</split>
	</tree>
	<tree id="19" weight="0.1">
		<split>
			<feature> 27 </feature>
			<threshold> 6.4034576 </threshold>
			<split pos="left">
				<feature> 5 </feature>
				<threshold> 2446285.5 </threshold>
				<split pos="left">
					<feature> 11 </feature>
					<threshold> 2983638.2 </threshold>
					<split pos="left">
						<feature> 14 </feature>
						<threshold> 9.160021 </threshold>
						<split pos="left">
							<feature> 27 </feature>
							<threshold> 4.696803 </threshold>
							<split pos="left">
								<output> -0.033362668 </output>
							</split>
							<split pos="right">
								<output> 0.020864978 </output>
							</split>
						</split>
						<split pos="right">
							<output> 0.28794324 </output>
						</split>
					</split>
					<split pos="right">
						<output> 0.08749017 </output>
					</split>
				</split>
				<split pos="right">
					<output> 0.11302408 </output>
				</split>
			</split>
			<split pos="right">
				<feature> 5 </feature>
				<threshold> 106360.24 </threshold>
				<split pos="left">
					<output> 1.224237 </output>
				</split>
				<split pos="right">
					<feature> 1 </feature>
					<threshold> 0.6341779 </threshold>
					<split pos="left">
						<output> 1.2359918 </output>
					</split>
					<split pos="right">
						<feature> 14 </feature>
						<threshold> 0.49247414 </threshold>
						<split pos="left">
							<feature> 20 </feature>
							<threshold> 1.013722 </threshold>
							<split pos="left">
								<output> 0.07209519 </output>
							</split>
							<split pos="right">
								<output> 0.57362396 </output>
							</split>
						</split>
						<split pos="right">
							<output> 0.35279375 </output>
						</split>
					</split>
				</split>
			</split>
		</split>
	</tree>
	<tree id="20" weight="0.1">
		<split>
			<feature> 26 </feature>
			<threshold> 0.0 </threshold>
			<split pos="left">
				<feature> 7 </feature>
				<threshold> 951830.0 </threshold>
				<split pos="left">
					<output> 0.009489998 </output>
				</split>
				<split pos="right">
					<feature> 11 </feature>
					<threshold> 994546.06 </threshold>
					<split pos="left">
						<output> 0.20058756 </output>
					</split>
					<split pos="right">
						<feature> 7 </feature>
						<threshold> 1175790.0 </threshold>
						<split pos="left">
							<output> -0.018743308 </output>
						</split>
						<split pos="right">
							<feature> 21 </feature>
							<threshold> 6.953557 </threshold>
							<split pos="left">
								<output> 0.19319677 </output>
							</split>
							<split pos="right">
								<feature> 20 </feature>
								<threshold> 0.3379073 </threshold>
								<split pos="left">
									<feature> 19 </feature>
									<threshold> 20.052464 </threshold>
									<split pos="left">
										<feature> 33 </feature>
										<threshold> 0.9909233 </threshold>
										<split pos="left">
											<output> 0.16188838 </output>
										</split>
										<split pos="right">
											<feature> 25 </feature>
											<threshold> 10.351775 </threshold>
											<split pos="left">
												<output> 0.05325407 </output>
											</split>
											<split pos="right">
												<output> -0.10769263 </output>
											</split>
										</split>
									</split>
									<split pos="right">
										<output> -0.4083551 </output>
									</split>
								</split>
								<split pos="right">
									<output> 0.2445058 </output>
								</split>
							</split>
						</split>
					</split>
				</split>
			</split>
			<split pos="right">
				<output> 0.14564355 </output>
			</split>
		</split>
	</tree>
	<tree id="21" weight="0.1">
		<split>
			<feature> 33 </feature>
			<threshold> 0.9997492 </threshold>
			<split pos="left">
				<feature> 1 </feature>
				<threshold> 0.77308583 </threshold>
				<split pos="left">
					<output> 0.4229192 </output>
				</split>
				<split pos="right">
					<feature> 22 </feature>
					<threshold> 5.8255897 </threshold>
					<split pos="left">
						<feature> 5 </feature>
						<threshold> 2871726.5 </threshold>
						<split pos="left">
							<feature> 29 </feature>
							<threshold> 6.2399526 </threshold>
							<split pos="left">
								<output> 0.0043383245 </output>
							</split>
							<split pos="right">
								<output> 0.116360284 </output>
							</split>
						</split>
						<split pos="right">
							<output> 0.10732761 </output>
						</split>
					</split>
					<split pos="right">
						<output> 0.19693871 </output>
					</split>
				</split>
			</split>
			<split pos="right">
				<feature> 5 </feature>
				<threshold> 106360.24 </threshold>
				<split pos="left">
					<output> 0.14815375 </output>
				</split>
				<split pos="right">
					<feature> 1 </feature>
					<threshold> 0.46054304 </threshold>
					<split pos="left">
						<output> 1.0907164 </output>
					</split>
					<split pos="right">
						<feature> 6 </feature>
						<threshold> 584944.75 </threshold>
						<split pos="left">
							<feature> 2 </feature>
							<threshold> 2.7570102 </threshold>
							<split pos="left">
								<output> 0.017635185 </output>
							</split>
							<split pos="right">
								<output> -0.07446633 </output>
							</split>
						</split>
						<split pos="right">
							<output> 0.44487327 </output>
						</split>
					</split>
				</split>
			</split>
		</split>
	</tree>
	<tree id="22" weight="0.1">
		<split>
			<feature> 15 </feature>
			<threshold> 13.877092 </threshold>
			<split pos="left">
				<feature> 5 </feature>
				<threshold> 2446285.5 </threshold>
				<split pos="left">
					<feature> 29 </feature>
					<threshold> 8.379366 </threshold>
					<split pos="left">
						<feature> 26 </feature>
						<threshold> 20.190334 </threshold>
						<split pos="left">
							<feature> 1 </feature>
							<threshold> 1.1377195 </threshold>
							<split pos="left">
								<feature> 11 </feature>
								<threshold> 2983638.2 </threshold>
								<split pos="left">
									<feature> 34 </feature>
									<threshold> 1895.6797 </threshold>
									<split pos="left">
										<output> -0.011092281 </output>
									</split>
									<split pos="right">
										<output> 0.06060016 </output>
									</split>
								</split>
								<split pos="right">
									<output> 0.09297969 </output>
								</split>
							</split>
							<split pos="right">
								<output> -0.0634974 </output>
							</split>
						</split>
						<split pos="right">
							<output> 2.3080158 </output>
						</split>
					</split>
					<split pos="right">
						<output> 0.62327355 </output>
					</split>
				</split>
				<split pos="right">
					<output> 0.09759858 </output>
				</split>
			</split>
			<split pos="right">
				<feature> 5 </feature>
				<threshold> 106360.24 </threshold>
				<split pos="left">
					<output> 1.7457206 </output>
				</split>
				<split pos="right">
					<feature> 14 </feature>
					<threshold> 0.49247414 </threshold>
					<split pos="left">
						<output> 0.06928192 </output>
					</split>
					<split pos="right">
						<output> 0.4487204 </output>
					</split>
				</split>
			</split>
		</split>
	</tree>
	<tree id="23" weight="0.1">
		<split>
			<feature> 33 </feature>
			<threshold> 0.9997492 </threshold>
			<split pos="left">
				<feature> 1 </feature>
				<threshold> 0.77308583 </threshold>
				<split pos="left">
					<output> 0.3759475 </output>
				</split>
				<split pos="right">
					<feature> 22 </feature>
					<threshold> 5.8255897 </threshold>
					<split pos="left">
						<feature> 1 </feature>
						<threshold> 2.578894 </threshold>
						<split pos="left">
							<feature> 27 </feature>
							<threshold> 14.367846 </threshold>
							<split pos="left">
								<feature> 5 </feature>
								<threshold> 3190807.2 </threshold>
								<split pos="left">
									<output> 0.027718443 </output>
								</split>
								<split pos="right">
									<output> 0.10489382 </output>
								</split>
							</split>
							<split pos="right">
								<output> 0.66335726 </output>
							</split>
						</split>
						<split pos="right">
							<output> -0.45399284 </output>
						</split>
					</split>
					<split pos="right">
						<output> 0.171671 </output>
					</split>
				</split>
			</split>
			<split pos="right">
				<feature> 15 </feature>
				<threshold> 15.595242 </threshold>
				<split pos="left">
					<feature> 1 </feature>
					<threshold> 1.7280802 </threshold>
					<split pos="left">
						<feature> 1 </feature>
						<threshold> 1.3460821 </threshold>
						<split pos="left">
							<output> 0.012537563 </output>
						</split>
						<split pos="right">
							<output> -0.22441182 </output>
						</split>
					</split>
					<split pos="right">
						<output> 1.9134159 </output>
					</split>
				</split>
				<split pos="right">
					<output> 0.15640669 </output>
				</split>
			</split>
		</split>
	</tree>
	<tree id="24" weight="0.1">
		<split>
			<feature> 26 </feature>
			<threshold> 0.0 </threshold>
			<split pos="left">
				<feature> 7 </feature>
				<threshold> 951830.0 </threshold>
				<split pos="left">
					<output> 9.176863E-4 </output>
				</split>
				<split pos="right">
					<feature> 11 </feature>
					<threshold> 994546.06 </threshold>
					<split pos="left">
						<output> 0.16904469 </output>
					</split>
					<split pos="right">
						<feature> 31 </feature>
						<threshold> 20.862066 </threshold>
						<split pos="left">
							<feature> 5 </feature>
							<threshold> 1489043.4 </threshold>
							<split pos="left">
								<output> -0.00459503 </output>
							</split>
							<split pos="right">
								<feature> 1 </feature>
								<threshold> 0.89463025 </threshold>
								<split pos="left">
									<output> 0.14798625 </output>
								</split>
								<split pos="right">
									<feature> 32 </feature>
									<threshold> 12.345421 </threshold>
									<split pos="left">
										<feature> 27 </feature>
										<threshold> 5.1031494 </threshold>
										<split pos="left">
											<output> 0.09568653 </output>
										</split>
										<split pos="right">
											<feature> 15 </feature>
											<threshold> 11.4716835 </threshold>
											<split pos="left">
												<output> -0.10270306 </output>
											</split>
											<split pos="right">
												<output> 0.044560473 </output>
											</split>
										</split>
									</split>
									<split pos="right">
										<output> 1.2820607 </output>
									</split>
								</split>
							</split>
						</split>
						<split pos="right">
							<output> -0.45237553 </output>
						</split>
					</split>
				</split>
			</split>
			<split pos="right">
				<output> 0.11170915 </output>
			</split>
		</split>
	</tree>
	<tree id="25" weight="0.1">
		<split>
			<feature> 21 </feature>
			<threshold> 12.531058 </threshold>
			<split pos="left">
				<feature> 2 </feature>
				<threshold> 4.4505997 </threshold>
				<split pos="left">
					<feature> 1 </feature>
					<threshold> 1.4328998 </threshold>
					<split pos="left">
						<feature> 5 </feature>
						<threshold> 2446285.5 </threshold>
						<split pos="left">
							<feature> 15 </feature>
							<threshold> 13.705277 </threshold>
							<split pos="left">
								<feature> 29 </feature>
								<threshold> 7.9336567 </threshold>
								<split pos="left">
									<feature> 26 </feature>
									<threshold> 20.190334 </threshold>
									<split pos="left">
										<feature> 1 </feature>
										<threshold> 1.2939914 </threshold>
										<split pos="left">
											<feature> 7 </feature>
											<threshold> 951830.0 </threshold>
											<split pos="left">
												<output> -0.01444062 </output>
											</split>
											<split pos="right">
												<output> 0.038650908 </output>
											</split>
										</split>
										<split pos="right">
											<output> -0.19352737 </output>
										</split>
									</split>
									<split pos="right">
										<output> 2.0642836 </output>
									</split>
								</split>
								<split pos="right">
									<output> 0.5077567 </output>
								</split>
							</split>
							<split pos="right">
								<output> 0.09783205 </output>
							</split>
						</split>
						<split pos="right">
							<output> 0.07841612 </output>
						</split>
					</split>
					<split pos="right">
						<output> -0.07533785 </output>
					</split>
				</split>
				<split pos="right">
					<output> 0.31602082 </output>
				</split>
			</split>
			<split pos="right">
				<output> 0.106964655 </output>
			</split>
		</split>
	</tree>
	<tree id="26" weight="0.1">
		<split>
			<feature> 26 </feature>
			<threshold> 0.0 </threshold>
			<split pos="left">
				<feature> 1 </feature>
				<threshold> 0.46054304 </threshold>
				<split pos="left">
					<output> 0.9756832 </output>
				</split>
				<split pos="right">
					<feature> 5 </feature>
					<threshold> 2020844.6 </threshold>
					<split pos="left">
						<feature> 7 </feature>
						<threshold> 951830.0 </threshold>
						<split pos="left">
							<output> -0.018535249 </output>
						</split>
						<split pos="right">
							<feature> 11 </feature>
							<threshold> 994546.06 </threshold>
							<split pos="left">
								<output> 0.14580661 </output>
							</split>
							<split pos="right">
								<feature> 17 </feature>
								<threshold> 25.702133 </threshold>
								<split pos="left">
									<output> 0.014547374 </output>
								</split>
								<split pos="right">
									<output> 0.8660995 </output>
								</split>
							</split>
						</split>
					</split>
					<split pos="right">
						<feature> 27 </feature>
						<threshold> 5.265688 </threshold>
						<split pos="left">
							<output> 0.089583345 </output>
						</split>
						<split pos="right">
							<feature> 20 </feature>
							<threshold> 1.013722 </threshold>
							<split pos="left">
								<feature> 11 </feature>
								<threshold> 6961822.5 </threshold>
								<split pos="left">
									<output> 0.046314474 </output>
								</split>
								<split pos="right">
									<output> -0.052574337 </output>
								</split>
							</split>
							<split pos="right">
								<output> 0.4697293 </output>
							</split>
						</split>
					</split>
				</split>
			</split>
			<split pos="right">
				<output> 0.09931797 </output>
			</split>
		</split>
	</tree>
	<tree id="27" weight="0.1">
		<split>
			<feature> 28 </feature>
			<threshold> 4.99094 </threshold>
			<split pos="left">
				<feature> 26 </feature>
				<threshold> 0.0 </threshold>
				<split pos="left">
					<feature> 1 </feature>
					<threshold> 0.46054304 </threshold>
					<split pos="left">
						<output> 0.87811476 </output>
					</split>
					<split pos="right">
						<feature> 5 </feature>
						<threshold> 2020844.6 </threshold>
						<split pos="left">
							<feature> 7 </feature>
							<threshold> 951830.0 </threshold>
							<split pos="left">
								<output> -0.018135292 </output>
							</split>
							<split pos="right">
								<feature> 11 </feature>
								<threshold> 994546.06 </threshold>
								<split pos="left">
									<output> 0.12607083 </output>
								</split>
								<split pos="right">
									<output> 0.012782059 </output>
								</split>
							</split>
						</split>
						<split pos="right">
							<feature> 1 </feature>
							<threshold> 1.2766279 </threshold>
							<split pos="left">
								<feature> 15 </feature>
								<threshold> 18.344267 </threshold>
								<split pos="left">
									<feature> 25 </feature>
									<threshold> 11.879089 </threshold>
									<split pos="left">
										<output> 0.06714939 </output>
									</split>
									<split pos="right">
										<output> -0.3701756 </output>
									</split>
								</split>
								<split pos="right">
									<output> 1.6325098 </output>
								</split>
							</split>
							<split pos="right">
								<output> -0.009229011 </output>
							</split>
						</split>
					</split>
				</split>
				<split pos="right">
					<output> 0.087562315 </output>
				</split>
			</split>
			<split pos="right">
				<output> 0.23200317 </output>
			</split>
		</split>
	</tree>
	<tree id="28" weight="0.1">
		<split>
			<feature> 33 </feature>
			<threshold> 0.99258614 </threshold>
			<split pos="left">
				<feature> 1 </feature>
				<threshold> 0.77308583 </threshold>
				<split pos="left">
					<output> 0.45217305 </output>
				</split>
				<split pos="right">
					<output> 0.047591157 </output>
				</split>
			</split>
			<split pos="right">
				<feature> 25 </feature>
				<threshold> 12.048791 </threshold>
				<split pos="left">
					<feature> 15 </feature>
					<threshold> 14.392537 </threshold>
					<split pos="left">
						<feature> 6 </feature>
						<threshold> 337718.0 </threshold>
						<split pos="left">
							<feature> 1 </feature>
							<threshold> 1.2939914 </threshold>
							<split pos="left">
								<feature> 26 </feature>
								<threshold> 11.216833 </threshold>
								<split pos="left">
									<feature> 9 </feature>
									<threshold> 8867927.0 </threshold>
									<split pos="left">
										<feature> 3 </feature>
										<threshold> 0.76163965 </threshold>
										<split pos="left">
											<output> -0.027551532 </output>
										</split>
										<split pos="right">
											<output> 0.01774979 </output>
										</split>
									</split>
									<split pos="right">
										<output> 0.062298737 </output>
									</split>
								</split>
								<split pos="right">
									<output> 0.70361763 </output>
								</split>
							</split>
							<split pos="right">
								<output> -0.12049365 </output>
							</split>
						</split>
						<split pos="right">
							<output> 0.2380429 </output>
						</split>
					</split>
					<split pos="right">
						<output> 0.08605215 </output>
					</split>
				</split>
				<split pos="right">
					<output> -0.15320148 </output>
				</split>
			</split>
		</split>
	</tree>
	<tree id="29" weight="0.1">
		<split>
			<feature> 14 </feature>
			<threshold> 0.0 </threshold>
			<split pos="left">
				<feature> 1 </feature>
				<threshold> 0.46054304 </threshold>
				<split pos="left">
					<output> 0.79305845 </output>
				</split>
				<split pos="right">
					<feature> 13 </feature>
					<threshold> 10.145862 </threshold>
					<split pos="left">
						<feature> 33 </feature>
						<threshold> 0.9996213 </threshold>
						<split pos="left">
							<feature> 26 </feature>
							<threshold> 6.3935957 </threshold>
							<split pos="left">
								<feature> 20 </feature>
								<threshold> 8.785584 </threshold>
								<split pos="left">
									<feature> 16 </feature>
									<threshold> 5.4113364 </threshold>
									<split pos="left">
										<feature> 32 </feature>
										<threshold> 10.553345 </threshold>
										<split pos="left">
											<feature> 1 </feature>
											<threshold> 3.0998003 </threshold>
											<split pos="left">
												<output> 0.01906631 </output>
											</split>
											<split pos="right">
												<output> -0.8949859 </output>
											</split>
										</split>
										<split pos="right">
											<output> 1.0158632 </output>
										</split>
									</split>
									<split pos="right">
										<output> 0.10959965 </output>
									</split>
								</split>
								<split pos="right">
									<output> 0.77119905 </output>
								</split>
							</split>
							<split pos="right">
								<output> 0.54244804 </output>
							</split>
						</split>
						<split pos="right">
							<output> 0.0014143687 </output>
						</split>
					</split>
					<split pos="right">
						<output> -0.095703125 </output>
					</split>
				</split>
			</split>
			<split pos="right">
				<output> 0.08455717 </output>
			</split>
		</split>
	</tree>
	<tree id="30" weight="0.1">
		<split>
			<feature> 1 </feature>
			<threshold> 0.59945095 </threshold>
			<split pos="left">
				<output> -0.058735836 </output>
			</split>
			<split pos="right">
				<feature> 5 </feature>
				<threshold> 106360.24 </threshold>
				<split pos="left">
					<output> 0.30162758 </output>
				</split>
				<split pos="right">
					<feature> 21 </feature>
					<threshold> 12.531058 </threshold>
					<split pos="left">
						<feature> 1 </feature>
						<threshold> 1.4155363 </threshold>
						<split pos="left">
							<feature> 5 </feature>
							<threshold> 2446285.5 </threshold>
							<split pos="left">
								<feature> 7 </feature>
								<threshold> 951830.0 </threshold>
								<split pos="left">
									<output> -0.014917293 </output>
								</split>
								<split pos="right">
									<feature> 3 </feature>
									<threshold> 2.9773138 </threshold>
									<split pos="left">
										<feature> 1 </feature>
										<threshold> 0.8251763 </threshold>
										<split pos="left">
											<output> 0.102884665 </output>
										</split>
										<split pos="right">
											<feature> 15 </feature>
											<threshold> 13.877092 </threshold>
											<split pos="left">
												<output> 0.003799456 </output>
											</split>
											<split pos="right">
												<output> 0.07668492 </output>
											</split>
										</split>
									</split>
									<split pos="right">
										<output> 2.0736072 </output>
									</split>
								</split>
							</split>
							<split pos="right">
								<output> 0.057554785 </output>
							</split>
						</split>
						<split pos="right">
							<output> -0.06842912 </output>
						</split>
					</split>
					<split pos="right">
						<output> 0.08376667 </output>
					</split>
				</split>
			</split>
		</split>
	</tree>
	<tree id="31" weight="0.1">
		<split>
			<feature> 28 </feature>
			<threshold> 4.99094 </threshold>
			<split pos="left">
				<feature> 3 </feature>
				<threshold> 3.115793 </threshold>
				<split pos="left">
					<feature> 23 </feature>
					<threshold> 23.414476 </threshold>
					<split pos="left">
						<feature> 1 </feature>
						<threshold> 0.59945095 </threshold>
						<split pos="left">
							<output> -0.05258494 </output>
						</split>
						<split pos="right">
							<feature> 5 </feature>
							<threshold> 106360.24 </threshold>
							<split pos="left">
								<output> 0.26598546 </output>
							</split>
							<split pos="right">
								<feature> 13 </feature>
								<threshold> 10.145862 </threshold>
								<split pos="left">
									<feature> 21 </feature>
									<threshold> 12.531058 </threshold>
									<split pos="left">
										<feature> 1 </feature>
										<threshold> 1.4328998 </threshold>
										<split pos="left">
											<feature> 15 </feature>
											<threshold> 13.877092 </threshold>
											<split pos="left">
												<output> 0.0084479265 </output>
											</split>
											<split pos="right">
												<output> 0.08404496 </output>
											</split>
										</split>
										<split pos="right">
											<output> -0.09063901 </output>
										</split>
									</split>
									<split pos="right">
										<output> 0.08458015 </output>
									</split>
								</split>
								<split pos="right">
									<output> -0.07889171 </output>
								</split>
							</split>
						</split>
					</split>
					<split pos="right">
						<output> 0.27883238 </output>
					</split>
				</split>
				<split pos="right">
					<output> -0.446287 </output>
				</split>
			</split>
			<split pos="right">
				<output> 0.19723308 </output>
			</split>
		</split>
	</tree>
	<tree id="32" weight="0.1">
		<split>
			<feature> 27 </feature>
			<threshold> 6.4034576 </threshold>
			<split pos="left">
				<feature> 1 </feature>
				<threshold> 0.529997 </threshold>
				<split pos="left">
					<output> -0.13814445 </output>
				</split>
				<split pos="right">
					<feature> 1 </feature>
					<threshold> 1.2939914 </threshold>
					<split pos="left">
						<feature> 5 </feature>
						<threshold> 2765366.2 </threshold>
						<split pos="left">
							<feature> 14 </feature>
							<threshold> 0.59096897 </threshold>
							<split pos="left">
								<feature> 11 </feature>
								<threshold> 2983638.2 </threshold>
								<split pos="left">
									<output> -0.010119774 </output>
								</split>
								<split pos="right">
									<output> 0.04317237 </output>
								</split>
							</split>
							<split pos="right">
								<output> 0.10659002 </output>
							</split>
						</split>
						<split pos="right">
							<output> 0.07259436 </output>
						</split>
					</split>
					<split pos="right">
						<output> -0.09016102 </output>
					</split>
				</split>
			</split>
			<split pos="right">
				<feature> 5 </feature>
				<threshold> 531801.1 </threshold>
				<split pos="left">
					<output> 0.63976854 </output>
				</split>
				<split pos="right">
					<feature> 25 </feature>
					<threshold> 10.351775 </threshold>
					<split pos="left">
						<feature> 14 </feature>
						<threshold> 0.49247414 </threshold>
						<split pos="left">
							<output> 0.029733447 </output>
						</split>
						<split pos="right">
							<output> 0.41522327 </output>
						</split>
					</split>
					<split pos="right">
						<output> -0.105161935 </output>
					</split>
				</split>
			</split>
		</split>
	</tree>
	<tree id="33" weight="0.1">
		<split>
			<feature> 33 </feature>
			<threshold> 0.99258614 </threshold>
			<split pos="left">
				<output> 0.04693879 </output>
			</split>
			<split pos="right">
				<feature> 25 </feature>
				<threshold> 12.048791 </threshold>
				<split pos="left">
					<feature> 15 </feature>
					<threshold> 14.392537 </threshold>
					<split pos="left">
						<feature> 6 </feature>
						<threshold> 337718.0 </threshold>
						<split pos="left">
							<feature> 1 </feature>
							<threshold> 1.2071737 </threshold>
							<split pos="left">
								<feature> 29 </feature>
								<threshold> 8.379366 </threshold>
								<split pos="left">
									<feature> 9 </feature>
									<threshold> 4433963.5 </threshold>
									<split pos="left">
										<feature> 26 </feature>
										<threshold> 11.216833 </threshold>
										<split pos="left">
											<feature> 23 </feature>
											<threshold> 5.5748754 </threshold>
											<split pos="left">
												<output> -0.053395543 </output>
											</split>
											<split pos="right">
												<output> 0.0027288136 </output>
											</split>
										</split>
										<split pos="right">
											<output> 0.71426636 </output>
										</split>
									</split>
									<split pos="right">
										<output> 0.034745585 </output>
									</split>
								</split>
								<split pos="right">
									<output> 0.4741088 </output>
								</split>
							</split>
							<split pos="right">
								<output> -0.08122909 </output>
							</split>
						</split>
						<split pos="right">
							<output> 0.20702483 </output>
						</split>
					</split>
					<split pos="right">
						<output> 0.06355017 </output>
					</split>
				</split>
				<split pos="right">
					<output> -0.13449058 </output>
				</split>
			</split>
		</split>
	</tree>
	<tree id="34" weight="0.1">
		<split>
			<feature> 28 </feature>
			<threshold> 4.99094 </threshold>
			<split pos="left">
				<feature> 3 </feature>
				<threshold> 3.115793 </threshold>
				<split pos="left">
					<feature> 23 </feature>
					<threshold> 23.414476 </threshold>
					<split pos="left">
						<feature> 11 </feature>
						<threshold> 1.0940007E7 </threshold>
						<split pos="left">
							<feature> 5 </feature>
							<threshold> 3722608.5 </threshold>
							<split pos="left">
								<feature> 27 </feature>
								<threshold> 4.696803 </threshold>
								<split pos="left">
									<output> -0.017686801 </output>
								</split>
								<split pos="right">
									<feature> 26 </feature>
									<threshold> 0.0 </threshold>
									<split pos="left">
										<feature> 20 </feature>
										<threshold> 0.11263577 </threshold>
										<split pos="left">
											<feature> 1 </feature>
											<threshold> 2.1621687 </threshold>
											<split pos="left">
												<output> 0.009051179 </output>
											</split>
											<split pos="right">
												<output> -0.31767043 </output>
											</split>
										</split>
										<split pos="right">
											<output> 0.17847766 </output>
										</split>
									</split>
									<split pos="right">
										<output> 0.14156301 </output>
									</split>
								</split>
							</split>
							<split pos="right">
								<output> 0.12266819 </output>
							</split>
						</split>
						<split pos="right">
							<output> -0.06059987 </output>
						</split>
					</split>
					<split pos="right">
						<output> 0.24105643 </output>
					</split>
				</split>
				<split pos="right">
					<output> -0.41662917 </output>
				</split>
			</split>
			<split pos="right">
				<output> 0.16871184 </output>
			</split>
		</split>
	</tree>
	<tree id="35" weight="0.1">
		<split>
			<feature> 13 </feature>
			<threshold> 17.143007 </threshold>
			<split pos="left">
				<feature> 27 </feature>
				<threshold> 6.4034576 </threshold>
				<split pos="left">
					<feature> 1 </feature>
					<threshold> 0.49527 </threshold>
					<split pos="left">
						<output> -0.16007558 </output>
					</split>
					<split pos="right">
						<feature> 1 </feature>
						<threshold> 1.3287185 </threshold>
						<split pos="left">
							<feature> 20 </feature>
							<threshold> 9.574034 </threshold>
							<split pos="left">
								<feature> 5 </feature>
								<threshold> 2765366.2 </threshold>
								<split pos="left">
									<feature> 11 </feature>
									<threshold> 2983638.2 </threshold>
									<split pos="left">
										<feature> 27 </feature>
										<threshold> 4.696803 </threshold>
										<split pos="left">
											<output> -0.044104174 </output>
										</split>
										<split pos="right">
											<output> 0.01080031 </output>
										</split>
									</split>
									<split pos="right">
										<output> 0.040503297 </output>
									</split>
								</split>
								<split pos="right">
									<output> 0.05747662 </output>
								</split>
							</split>
							<split pos="right">
								<output> 0.28621083 </output>
							</split>
						</split>
						<split pos="right">
							<output> -0.10786829 </output>
						</split>
					</split>
				</split>
				<split pos="right">
					<feature> 5 </feature>
					<threshold> 106360.24 </threshold>
					<split pos="left">
						<output> 0.86020124 </output>
					</split>
					<split pos="right">
						<output> 0.029241847 </output>
					</split>
				</split>
			</split>
			<split pos="right">
				<output> -0.17486918 </output>
			</split>
		</split>
	</tree>
	<tree id="36" weight="0.1">
		<split>
			<feature> 33 </feature>
			<threshold> 0.99258614 </threshold>
			<split pos="left">
				<output> 0.039843027 </output>
			</split>
			<split pos="right">
				<feature> 25 </feature>
				<threshold> 10.351775 </threshold>
				<split pos="left">
					<feature> 15 </feature>
					<threshold> 14.392537 </threshold>
					<split pos="left">
						<feature> 6 </feature>
						<threshold> 584944.75 </threshold>
						<split pos="left">
							<feature> 1 </feature>
							<threshold> 1.2071737 </threshold>
							<split pos="left">
								<feature> 29 </feature>
								<threshold> 8.379366 </threshold>
								<split pos="left">
									<feature> 9 </feature>
									<threshold> 8867927.0 </threshold>
									<split pos="left">
										<feature> 5 </feature>
										<threshold> 3616248.2 </threshold>
										<split pos="left">
											<feature> 26 </feature>
											<threshold> 9.42214 </threshold>
											<split pos="left">
												<output> -0.00697507 </output>
											</split>
											<split pos="right">
												<output> 0.31839344 </output>
											</split>
										</split>
										<split pos="right">
											<output> 0.6275988 </output>
										</split>
									</split>
									<split pos="right">
										<output> 0.050805863 </output>
									</split>
								</split>
								<split pos="right">
									<output> 0.38818312 </output>
								</split>
							</split>
							<split pos="right">
								<output> -0.0740808 </output>
							</split>
						</split>
						<split pos="right">
							<output> 0.20930146 </output>
						</split>
					</split>
					<split pos="right">
						<output> 0.059876073 </output>
					</split>
				</split>
				<split pos="right">
					<output> -0.10752124 </output>
				</split>
			</split>
		</split>
	</tree>
	<tree id="37" weight="0.1">
		<split>
			<feature> 28 </feature>
			<threshold> 9.103471 </threshold>
			<split pos="left">
				<feature> 22 </feature>
				<threshold> 14.489283 </threshold>
				<split pos="left">
					<feature> 3 </feature>
					<threshold> 3.1850326 </threshold>
					<split pos="left">
						<feature> 29 </feature>
						<threshold> 13.995302 </threshold>
						<split pos="left">
							<feature> 15 </feature>
							<threshold> 26.419523 </threshold>
							<split pos="left">
								<feature> 1 </feature>
								<threshold> 2.3010771 </threshold>
								<split pos="left">
									<feature> 29 </feature>
									<threshold> 12.6581745 </threshold>
									<split pos="left">
										<feature> 3 </feature>
										<threshold> 3.1619527 </threshold>
										<split pos="left">
											<feature> 2 </feature>
											<threshold> 4.0567417 </threshold>
											<split pos="left">
												<output> 0.005321802 </output>
											</split>
											<split pos="right">
												<output> 0.12792267 </output>
											</split>
										</split>
										<split pos="right">
											<output> 2.3699472 </output>
										</split>
									</split>
									<split pos="right">
										<output> 0.5237473 </output>
									</split>
								</split>
								<split pos="right">
									<output> 0.662542 </output>
								</split>
							</split>
							<split pos="right">
								<output> -0.30090785 </output>
							</split>
						</split>
						<split pos="right">
							<output> 0.37683108 </output>
						</split>
					</split>
					<split pos="right">
						<output> -0.38740268 </output>
					</split>
				</split>
				<split pos="right">
					<output> -0.51466423 </output>
				</split>
			</split>
			<split pos="right">
				<output> 0.80842584 </output>
			</split>
		</split>
	</tree>
	<tree id="38" weight="0.1">
		<split>
			<feature> 23 </feature>
			<threshold> 191.77571 </threshold>
			<split pos="left">
				<feature> 23 </feature>
				<threshold> 23.414476 </threshold>
				<split pos="left">
					<feature> 11 </feature>
					<threshold> 1.1934553E7 </threshold>
					<split pos="left">
						<feature> 5 </feature>
						<threshold> 3722608.5 </threshold>
						<split pos="left">
							<feature> 23 </feature>
							<threshold> 4.4599004 </threshold>
							<split pos="left">
								<output> -0.02545478 </output>
							</split>
							<split pos="right">
								<feature> 5 </feature>
								<threshold> 106360.24 </threshold>
								<split pos="left">
									<output> 0.15027943 </output>
								</split>
								<split pos="right">
									<feature> 1 </feature>
									<threshold> 0.47790653 </threshold>
									<split pos="left">
										<output> 0.4391049 </output>
									</split>
									<split pos="right">
										<feature> 22 </feature>
										<threshold> 14.489283 </threshold>
										<split pos="left">
											<feature> 22 </feature>
											<threshold> 14.265222 </threshold>
											<split pos="left">
												<output> 0.007637467 </output>
											</split>
											<split pos="right">
												<output> 2.4935014 </output>
											</split>
										</split>
										<split pos="right">
											<output> -0.4883912 </output>
										</split>
									</split>
								</split>
							</split>
						</split>
						<split pos="right">
							<output> 0.10021392 </output>
						</split>
					</split>
					<split pos="right">
						<output> -0.0683952 </output>
					</split>
				</split>
				<split pos="right">
					<output> 0.20408434 </output>
				</split>
			</split>
			<split pos="right">
				<output> -0.78706723 </output>
			</split>
		</split>
	</tree>
	<tree id="39" weight="0.1">
		<split>
			<feature> 14 </feature>
			<threshold> 25.017727 </threshold>
			<split pos="left">
				<feature> 13 </feature>
				<threshold> 17.317936 </threshold>
				<split pos="left">
					<feature> 26 </feature>
					<threshold> 16.15224 </threshold>
					<split pos="left">
						<feature> 26 </feature>
						<threshold> 11.777675 </threshold>
						<split pos="left">
							<feature> 26 </feature>
							<threshold> 11.216833 </threshold>
							<split pos="left">
								<feature> 14 </feature>
								<threshold> 0.0 </threshold>
								<split pos="left">
									<feature> 20 </feature>
									<threshold> 10.813025 </threshold>
									<split pos="left">
										<feature> 1 </feature>
										<threshold> 0.46054304 </threshold>
										<split pos="left">
											<output> 0.6429222 </output>
										</split>
										<split pos="right">
											<feature> 1 </feature>
											<threshold> 3.0998003 </threshold>
											<split pos="left">
												<output> 0.002909354 </output>
											</split>
											<split pos="right">
												<output> -0.728961 </output>
											</split>
										</split>
									</split>
									<split pos="right">
										<output> 0.57022697 </output>
									</split>
								</split>
								<split pos="right">
									<output> 0.0612382 </output>
								</split>
							</split>
							<split pos="right">
								<output> 0.69424427 </output>
							</split>
						</split>
						<split pos="right">
							<output> -0.23054355 </output>
						</split>
					</split>
					<split pos="right">
						<output> 0.46683604 </output>
					</split>
				</split>
				<split pos="right">
					<output> -0.1741967 </output>
				</split>
			</split>
			<split pos="right">
				<output> 2.0387452 </output>
			</split>
		</split>
	</tree>
	<tree id="40" weight="0.1">
		<split>
			<feature> 14 </feature>
			<threshold> 4.235276 </threshold>
			<split pos="left">
				<feature> 14 </feature>
				<threshold> 0.59096897 </threshold>
				<split pos="left">
					<feature> 31 </feature>
					<threshold> 22.352211 </threshold>
					<split pos="left">
						<feature> 32 </feature>
						<threshold> 18.816807 </threshold>
						<split pos="left">
							<feature> 1 </feature>
							<threshold> 0.47790653 </threshold>
							<split pos="left">
								<output> 0.36080018 </output>
							</split>
							<split pos="right">
								<feature> 33 </feature>
								<threshold> 0.9909233 </threshold>
								<split pos="left">
									<output> 0.06729841 </output>
								</split>
								<split pos="right">
									<feature> 25 </feature>
									<threshold> 10.351775 </threshold>
									<split pos="left">
										<feature> 26 </feature>
										<threshold> 10.09515 </threshold>
										<split pos="left">
											<feature> 20 </feature>
											<threshold> 10.813025 </threshold>
											<split pos="left">
												<output> 0.0018492477 </output>
											</split>
											<split pos="right">
												<output> 0.66606164 </output>
											</split>
										</split>
										<split pos="right">
											<output> 1.254877 </output>
										</split>
									</split>
									<split pos="right">
										<output> -0.08996583 </output>
									</split>
								</split>
							</split>
						</split>
						<split pos="right">
							<output> 1.711588 </output>
						</split>
					</split>
					<split pos="right">
						<output> -0.38948524 </output>
					</split>
				</split>
				<split pos="right">
					<output> 0.2610458 </output>
				</split>
			</split>
			<split pos="right">
				<output> -0.059001256 </output>
			</split>
		</split>
	</tree>
	<tree id="41" weight="0.1">
		<split>
			<feature> 1 </feature>
			<threshold> 0.59945095 </threshold>
			<split pos="left">
				<output> -0.048656054 </output>
			</split>
			<split pos="right">
				<feature> 5 </feature>
				<threshold> 106360.24 </threshold>
				<split pos="left">
					<output> 0.19416034 </output>
				</split>
				<split pos="right">
					<feature> 33 </feature>
					<threshold> 0.99258614 </threshold>
					<split pos="left">
						<output> 0.032389764 </output>
					</split>
					<split pos="right">
						<feature> 28 </feature>
						<threshold> 9.103471 </threshold>
						<split pos="left">
							<feature> 25 </feature>
							<threshold> 10.351775 </threshold>
							<split pos="left">
								<feature> 6 </feature>
								<threshold> 584944.75 </threshold>
								<split pos="left">
									<feature> 3 </feature>
									<threshold> 3.092713 </threshold>
									<split pos="left">
										<feature> 1 </feature>
										<threshold> 1.7801708 </threshold>
										<split pos="left">
											<feature> 3 </feature>
											<threshold> 2.769595 </threshold>
											<split pos="left">
												<output> -0.0030419452 </output>
											</split>
											<split pos="right">
												<output> 0.6954121 </output>
											</split>
										</split>
										<split pos="right">
											<output> 0.14261098 </output>
										</split>
									</split>
									<split pos="right">
										<output> -0.40851668 </output>
									</split>
								</split>
								<split pos="right">
									<output> 0.115214005 </output>
								</split>
							</split>
							<split pos="right">
								<output> -0.09421084 </output>
							</split>
						</split>
						<split pos="right">
							<output> 0.99207497 </output>
						</split>
					</split>
				</split>
			</split>
		</split>
	</tree>
	<tree id="42" weight="0.1">
		<split>
			<feature> 14 </feature>
			<threshold> 2.2653804 </threshold>
			<split pos="left">
				<feature> 14 </feature>
				<threshold> 0.59096897 </threshold>
				<split pos="left">
					<feature> 31 </feature>
					<threshold> 22.352211 </threshold>
					<split pos="left">
						<feature> 26 </feature>
						<threshold> 15.927902 </threshold>
						<split pos="left">
							<feature> 27 </feature>
							<threshold> 3.8028407 </threshold>
							<split pos="left">
								<output> 0.057964195 </output>
							</split>
							<split pos="right">
								<feature> 1 </feature>
								<threshold> 0.46054304 </threshold>
								<split pos="left">
									<output> 0.5474157 </output>
								</split>
								<split pos="right">
									<feature> 22 </feature>
									<threshold> 14.489283 </threshold>
									<split pos="left">
										<feature> 22 </feature>
										<threshold> 14.190535 </threshold>
										<split pos="left">
											<feature> 1 </feature>
											<threshold> 3.0998003 </threshold>
											<split pos="left">
												<output> -2.9110385E-4 </output>
											</split>
											<split pos="right">
												<output> -0.62805706 </output>
											</split>
										</split>
										<split pos="right">
											<output> 0.77161187 </output>
										</split>
									</split>
									<split pos="right">
										<output> -0.4033718 </output>
									</split>
								</split>
							</split>
						</split>
						<split pos="right">
							<output> 0.71973926 </output>
						</split>
					</split>
					<split pos="right">
						<output> -0.34620312 </output>
					</split>
				</split>
				<split pos="right">
					<output> 0.43108618 </output>
				</split>
			</split>
			<split pos="right">
				<output> -0.05245337 </output>
			</split>
		</split>
	</tree>
	<tree id="43" weight="0.1">
		<split>
			<feature> 23 </feature>
			<threshold> 191.77571 </threshold>
			<split pos="left">
				<feature> 23 </feature>
				<threshold> 23.414476 </threshold>
				<split pos="left">
					<feature> 11 </feature>
					<threshold> 1.0940007E7 </threshold>
					<split pos="left">
						<feature> 7 </feature>
						<threshold> 3695340.0 </threshold>
						<split pos="left">
							<feature> 15 </feature>
							<threshold> 8.89446 </threshold>
							<split pos="left">
								<output> -0.02325659 </output>
							</split>
							<split pos="right">
								<feature> 5 </feature>
								<threshold> 106360.24 </threshold>
								<split pos="left">
									<output> 0.24221788 </output>
								</split>
								<split pos="right">
									<feature> 21 </feature>
									<threshold> 6.953557 </threshold>
									<split pos="left">
										<output> 0.04901113 </output>
									</split>
									<split pos="right">
										<feature> 1 </feature>
										<threshold> 0.77308583 </threshold>
										<split pos="left">
											<output> 0.10131839 </output>
										</split>
										<split pos="right">
											<feature> 5 </feature>
											<threshold> 3190807.2 </threshold>
											<split pos="left">
												<output> -0.007473444 </output>
											</split>
											<split pos="right">
												<output> 0.052780908 </output>
											</split>
										</split>
									</split>
								</split>
							</split>
						</split>
						<split pos="right">
							<output> 0.17546414 </output>
						</split>
					</split>
					<split pos="right">
						<output> -0.057296388 </output>
					</split>
				</split>
				<split pos="right">
					<output> 0.17797512 </output>
				</split>
			</split>
			<split pos="right">
				<output> -0.72593147 </output>
			</split>
		</split>
	</tree>
	<tree id="44" weight="0.1">
		<split>
			<feature> 14 </feature>
			<threshold> 2.2653804 </threshold>
			<split pos="left">
				<feature> 14 </feature>
				<threshold> 0.59096897 </threshold>
				<split pos="left">
					<feature> 27 </feature>
					<threshold> 9.085343 </threshold>
					<split pos="left">
						<feature> 29 </feature>
						<threshold> 8.379366 </threshold>
						<split pos="left">
							<feature> 3 </feature>
							<threshold> 2.7234352 </threshold>
							<split pos="left">
								<feature> 29 </feature>
								<threshold> 8.022799 </threshold>
								<split pos="left">
									<feature> 2 </feature>
									<threshold> 4.805072 </threshold>
									<split pos="left">
										<feature> 21 </feature>
										<threshold> 24.615654 </threshold>
										<split pos="left">
											<feature> 15 </feature>
											<threshold> 15.423427 </threshold>
											<split pos="left">
												<output> -8.948092E-4 </output>
											</split>
											<split pos="right">
												<output> 0.065730326 </output>
											</split>
										</split>
										<split pos="right">
											<output> 0.490756 </output>
										</split>
									</split>
									<split pos="right">
										<output> 0.29713002 </output>
									</split>
								</split>
								<split pos="right">
									<output> -0.14072149 </output>
								</split>
							</split>
							<split pos="right">
								<output> 0.6244893 </output>
							</split>
						</split>
						<split pos="right">
							<output> 0.18195699 </output>
						</split>
					</split>
					<split pos="right">
						<output> -0.05309696 </output>
					</split>
				</split>
				<split pos="right">
					<output> 0.3779811 </output>
				</split>
			</split>
			<split pos="right">
				<output> -0.04933114 </output>
			</split>
		</split>
	</tree>
	<tree id="45" weight="0.1">
		<split>
			<feature> 14 </feature>
			<threshold> 25.017727 </threshold>
			<split pos="left">
				<feature> 14 </feature>
				<threshold> 1.8714013 </threshold>
				<split pos="left">
					<feature> 14 </feature>
					<threshold> 0.59096897 </threshold>
					<split pos="left">
						<feature> 27 </feature>
						<threshold> 3.8028407 </threshold>
						<split pos="left">
							<output> 0.052753698 </output>
						</split>
						<split pos="right">
							<feature> 1 </feature>
							<threshold> 0.47790653 </threshold>
							<split pos="left">
								<output> 0.31149095 </output>
							</split>
							<split pos="right">
								<feature> 13 </feature>
								<threshold> 19.067223 </threshold>
								<split pos="left">
									<feature> 26 </feature>
									<threshold> 15.927902 </threshold>
									<split pos="left">
										<feature> 29 </feature>
										<threshold> 4.5462484 </threshold>
										<split pos="left">
											<output> -0.020356381 </output>
										</split>
										<split pos="right">
											<feature> 20 </feature>
											<threshold> 0.11263577 </threshold>
											<split pos="left">
												<output> 0.0022874556 </output>
											</split>
											<split pos="right">
												<output> 0.15926614 </output>
											</split>
										</split>
									</split>
									<split pos="right">
										<output> 0.45583975 </output>
									</split>
								</split>
								<split pos="right">
									<output> -0.2456294 </output>
								</split>
							</split>
						</split>
					</split>
					<split pos="right">
						<output> 0.35860127 </output>
					</split>
				</split>
				<split pos="right">
					<output> -0.04597258 </output>
				</split>
			</split>
			<split pos="right">
				<output> 1.8611176 </output>
			</split>
		</split>
	</tree>
	<tree id="46" weight="0.1">
		<split>
			<feature> 23 </feature>
			<threshold> 191.77571 </threshold>
			<split pos="left">
				<feature> 5 </feature>
				<threshold> 7977009.5 </threshold>
				<split pos="left">
					<feature> 29 </feature>
					<threshold> 14.173586 </threshold>
					<split pos="left">
						<feature> 15 </feature>
						<threshold> 27.622221 </threshold>
						<split pos="left">
							<feature> 1 </feature>
							<threshold> 2.3010771 </threshold>
							<split pos="left">
								<feature> 27 </feature>
								<threshold> 13.148807 </threshold>
								<split pos="left">
									<feature> 15 </feature>
									<threshold> 26.419523 </threshold>
									<split pos="left">
										<feature> 17 </feature>
										<threshold> 27.31975 </threshold>
										<split pos="left">
											<feature> 23 </feature>
											<threshold> 4.4599004 </threshold>
											<split pos="left">
												<output> -0.021919172 </output>
											</split>
											<split pos="right">
												<output> 0.0077192523 </output>
											</split>
										</split>
										<split pos="right">
											<output> 1.179727 </output>
										</split>
									</split>
									<split pos="right">
										<output> -0.3816993 </output>
									</split>
								</split>
								<split pos="right">
									<output> 0.5067256 </output>
								</split>
							</split>
							<split pos="right">
								<output> 0.4534083 </output>
							</split>
						</split>
						<split pos="right">
							<output> -0.3307974 </output>
						</split>
					</split>
					<split pos="right">
						<output> 0.22638477 </output>
					</split>
				</split>
				<split pos="right">
					<output> -0.29512897 </output>
				</split>
			</split>
			<split pos="right">
				<output> -0.6660234 </output>
			</split>
		</split>
	</tree>
	<tree id="47" weight="0.1">
		<split>
			<feature> 28 </feature>
			<threshold> 4.99094 </threshold>
			<split pos="left">
				<feature> 3 </feature>
				<threshold> 3.115793 </threshold>
				<split pos="left">
					<feature> 29 </feature>
					<threshold> 16.7587 </threshold>
					<split pos="left">
						<feature> 16 </feature>
						<threshold> 20.396591 </threshold>
						<split pos="left">
							<feature> 29 </feature>
							<threshold> 16.491274 </threshold>
							<split pos="left">
								<feature> 21 </feature>
								<threshold> 49.714436 </threshold>
								<split pos="left">
									<feature> 23 </feature>
									<threshold> 23.414476 </threshold>
									<split pos="left">
										<feature> 15 </feature>
										<threshold> 26.419523 </threshold>
										<split pos="left">
											<feature> 27 </feature>
											<threshold> 11.929768 </threshold>
											<split pos="left">
												<output> 0.001265062 </output>
											</split>
											<split pos="right">
												<output> 0.25618184 </output>
											</split>
										</split>
										<split pos="right">
											<output> -0.22280483 </output>
										</split>
									</split>
									<split pos="right">
										<output> 0.27088416 </output>
									</split>
								</split>
								<split pos="right">
									<output> -0.32887235 </output>
								</split>
							</split>
							<split pos="right">
								<output> -1.2483053 </output>
							</split>
						</split>
						<split pos="right">
							<output> -0.49333242 </output>
						</split>
					</split>
					<split pos="right">
						<output> 0.4651763 </output>
					</split>
				</split>
				<split pos="right">
					<output> -0.3315162 </output>
				</split>
			</split>
			<split pos="right">
				<output> 0.1203667 </output>
			</split>
		</split>
	</tree>
	<tree id="48" weight="0.1">
		<split>
			<feature> 14 </feature>
			<threshold> 25.017727 </threshold>
			<split pos="left">
				<feature> 20 </feature>
				<threshold> 2.477987 </threshold>
				<split pos="left">
					<feature> 20 </feature>
					<threshold> 0.56317884 </threshold>
					<split pos="left">
						<feature> 26 </feature>
						<threshold> 0.0 </threshold>
						<split pos="left">
							<feature> 32 </feature>
							<threshold> 0.0 </threshold>
							<split pos="left">
								<feature> 2 </feature>
								<threshold> 3.0720966 </threshold>
								<split pos="left">
									<feature> 14 </feature>
									<threshold> 9.258515 </threshold>
									<split pos="left">
										<feature> 27 </feature>
										<threshold> 9.572959 </threshold>
										<split pos="left">
											<feature> 16 </feature>
											<threshold> 20.084396 </threshold>
											<split pos="left">
												<output> 0.0022524556 </output>
											</split>
											<split pos="right">
												<output> 1.3017442 </output>
											</split>
										</split>
										<split pos="right">
											<output> -0.07229786 </output>
										</split>
									</split>
									<split pos="right">
										<output> 0.38520554 </output>
									</split>
								</split>
								<split pos="right">
									<output> -0.058562774 </output>
								</split>
							</split>
							<split pos="right">
								<output> 0.111170255 </output>
							</split>
						</split>
						<split pos="right">
							<output> 0.07420125 </output>
						</split>
					</split>
					<split pos="right">
						<output> 0.27763927 </output>
					</split>
				</split>
				<split pos="right">
					<output> -0.045083694 </output>
				</split>
			</split>
			<split pos="right">
				<output> 1.6741074 </output>
			</split>
		</split>
	</tree>
	<tree id="49" weight="0.1">
		<split>
			<feature> 11 </feature>
			<threshold> 1.1934553E7 </threshold>
			<split pos="left">
				<feature> 7 </feature>
				<threshold> 3695340.0 </threshold>
				<split pos="left">
					<feature> 29 </feature>
					<threshold> 14.173586 </threshold>
					<split pos="left">
						<feature> 21 </feature>
						<threshold> 38.55942 </threshold>
						<split pos="left">
							<feature> 6 </feature>
							<threshold> 955210.7 </threshold>
							<split pos="left">
								<feature> 7 </feature>
								<threshold> 951830.0 </threshold>
								<split pos="left">
									<output> -0.008641746 </output>
								</split>
								<split pos="right">
									<feature> 11 </feature>
									<threshold> 994546.06 </threshold>
									<split pos="left">
										<output> 0.105173424 </output>
									</split>
									<split pos="right">
										<feature> 5 </feature>
										<threshold> 1276322.9 </threshold>
										<split pos="left">
											<output> -0.05305775 </output>
										</split>
										<split pos="right">
											<feature> 1 </feature>
											<threshold> 0.8599033 </threshold>
											<split pos="left">
												<output> 0.12273704 </output>
											</split>
											<split pos="right">
												<output> 0.004728271 </output>
											</split>
										</split>
									</split>
								</split>
							</split>
							<split pos="right">
								<output> 0.48981687 </output>
							</split>
						</split>
						<split pos="right">
							<output> -0.3665432 </output>
						</split>
					</split>
					<split pos="right">
						<output> 0.3193795 </output>
					</split>
				</split>
				<split pos="right">
					<output> 0.14010008 </output>
				</split>
			</split>
			<split pos="right">
				<output> -0.051348403 </output>
			</split>
		</split>
	</tree>
	<tree id="50" weight="0.1">
		<split>
			<feature> 31 </feature>
			<threshold> 29.802935 </threshold>
			<split pos="left">
				<feature> 28 </feature>
				<threshold> 9.103471 </threshold>
				<split pos="left">
					<feature> 22 </feature>
					<threshold> 14.489283 </threshold>
					<split pos="left">
						<feature> 22 </feature>
						<threshold> 8.589009 </threshold>
						<split pos="left">
							<feature> 3 </feature>
							<threshold> 3.115793 </threshold>
							<split pos="left">
								<feature> 27 </feature>
								<threshold> 14.367846 </threshold>
								<split pos="left">
									<feature> 15 </feature>
									<threshold> 27.278593 </threshold>
									<split pos="left">
										<feature> 1 </feature>
										<threshold> 2.3010771 </threshold>
										<split pos="left">
											<feature> 33 </feature>
											<threshold> 0.9909233 </threshold>
											<split pos="left">
												<output> 0.05501907 </output>
											</split>
											<split pos="right">
												<output> -0.0010920237 </output>
											</split>
										</split>
										<split pos="right">
											<output> 0.46067238 </output>
										</split>
									</split>
									<split pos="right">
										<output> -0.25774744 </output>
									</split>
								</split>
								<split pos="right">
									<output> 0.3151793 </output>
								</split>
							</split>
							<split pos="right">
								<output> -0.29903686 </output>
							</split>
						</split>
						<split pos="right">
							<output> 0.10677949 </output>
						</split>
					</split>
					<split pos="right">
						<output> -0.38612902 </output>
					</split>
				</split>
				<split pos="right">
					<output> 0.6048193 </output>
				</split>
			</split>
			<split pos="right">
				<output> -0.35641995 </output>
			</split>
		</split>
	</tree>
	<tree id="51" weight="0.1">
		<split>
			<feature> 5 </feature>
			<threshold> 7977009.5 </threshold>
			<split pos="left">
				<feature> 13 </feature>
				<threshold> 10.145862 </threshold>
				<split pos="left">
					<feature> 27 </feature>
					<threshold> 6.4034576 </threshold>
					<split pos="left">
						<feature> 1 </feature>
						<threshold> 1.3287185 </threshold>
						<split pos="left">
							<feature> 1 </feature>
							<threshold> 0.5126335 </threshold>
							<split pos="left">
								<output> -0.1258279 </output>
							</split>
							<split pos="right">
								<feature> 20 </feature>
								<threshold> 9.574034 </threshold>
								<split pos="left">
									<feature> 21 </feature>
									<threshold> 10.671891 </threshold>
									<split pos="left">
										<feature> 5 </feature>
										<threshold> 2446285.5 </threshold>
										<split pos="left">
											<feature> 33 </feature>
											<threshold> 0.9911791 </threshold>
											<split pos="left">
												<output> -0.14277954 </output>
											</split>
											<split pos="right">
												<output> -0.0018919008 </output>
											</split>
										</split>
										<split pos="right">
											<output> 0.03935366 </output>
										</split>
									</split>
									<split pos="right">
										<output> -0.30776185 </output>
									</split>
								</split>
								<split pos="right">
									<output> 0.28958812 </output>
								</split>
							</split>
						</split>
						<split pos="right">
							<output> -0.11674624 </output>
						</split>
					</split>
					<split pos="right">
						<output> 0.029019555 </output>
					</split>
				</split>
				<split pos="right">
					<output> -0.05323243 </output>
				</split>
			</split>
			<split pos="right">
				<output> -0.26067433 </output>
			</split>
		</split>
	</tree>
	<tree id="52" weight="0.1">
		<split>
			<feature> 11 </feature>
			<threshold> 1.0940007E7 </threshold>
			<split pos="left">
				<feature> 7 </feature>
				<threshold> 3695340.0 </threshold>
				<split pos="left">
					<feature> 21 </feature>
					<threshold> 80.390656 </threshold>
					<split pos="left">
						<feature> 6 </feature>
						<threshold> 955210.7 </threshold>
						<split pos="left">
							<feature> 2 </feature>
							<threshold> 5.9866457 </threshold>
							<split pos="left">
								<feature> 2 </feature>
								<threshold> 4.765686 </threshold>
								<split pos="left">
									<feature> 27 </feature>
									<threshold> 14.449115 </threshold>
									<split pos="left">
										<feature> 7 </feature>
										<threshold> 951830.0 </threshold>
										<split pos="left">
											<output> -0.008919521 </output>
										</split>
										<split pos="right">
											<feature> 5 </feature>
											<threshold> 3828968.8 </threshold>
											<split pos="left">
												<output> 0.014572389 </output>
											</split>
											<split pos="right">
												<output> -0.41912854 </output>
											</split>
										</split>
									</split>
									<split pos="right">
										<output> 0.32647145 </output>
									</split>
								</split>
								<split pos="right">
									<output> 0.21421647 </output>
								</split>
							</split>
							<split pos="right">
								<output> -0.2633629 </output>
							</split>
						</split>
						<split pos="right">
							<output> 0.43698767 </output>
						</split>
					</split>
					<split pos="right">
						<output> -0.5461232 </output>
					</split>
				</split>
				<split pos="right">
					<output> 0.14426975 </output>
				</split>
			</split>
			<split pos="right">
				<output> -0.044904504 </output>
			</split>
		</split>
	</tree>
	<tree id="53" weight="0.1">
		<split>
			<feature> 1 </feature>
			<threshold> 3.4644349 </threshold>
			<split pos="left">
				<feature> 17 </feature>
				<threshold> 31.81313 </threshold>
				<split pos="left">
					<feature> 22 </feature>
					<threshold> 14.489283 </threshold>
					<split pos="left">
						<feature> 22 </feature>
						<threshold> 13.219604 </threshold>
						<split pos="left">
							<feature> 2 </feature>
							<threshold> 3.781041 </threshold>
							<split pos="left">
								<feature> 1 </feature>
								<threshold> 1.0856289 </threshold>
								<split pos="left">
									<feature> 11 </feature>
									<threshold> 2983638.2 </threshold>
									<split pos="left">
										<feature> 34 </feature>
										<threshold> 1895.6797 </threshold>
										<split pos="left">
											<output> -0.020005265 </output>
										</split>
										<split pos="right">
											<output> 0.034514256 </output>
										</split>
									</split>
									<split pos="right">
										<output> 0.060871832 </output>
									</split>
								</split>
								<split pos="right">
									<feature> 15 </feature>
									<threshold> 13.361648 </threshold>
									<split pos="left">
										<output> -0.047825247 </output>
									</split>
									<split pos="right">
										<output> 0.014843741 </output>
									</split>
								</split>
							</split>
							<split pos="right">
								<output> 0.07007524 </output>
							</split>
						</split>
						<split pos="right">
							<output> 0.44288355 </output>
						</split>
					</split>
					<split pos="right">
						<output> -0.35049897 </output>
					</split>
				</split>
				<split pos="right">
					<output> 0.5759205 </output>
				</split>
			</split>
			<split pos="right">
				<output> -0.570897 </output>
			</split>
		</split>
	</tree>
	<tree id="54" weight="0.1">
		<split>
			<feature> 14 </feature>
			<threshold> 25.017727 </threshold>
			<split pos="left">
				<feature> 13 </feature>
				<threshold> 17.143007 </threshold>
				<split pos="left">
					<feature> 13 </feature>
					<threshold> 16.618221 </threshold>
					<split pos="left">
						<feature> 19 </feature>
						<threshold> 13.78607 </threshold>
						<split pos="left">
							<feature> 17 </feature>
							<threshold> 18.512726 </threshold>
							<split pos="left">
								<feature> 1 </feature>
								<threshold> 1.9538063 </threshold>
								<split pos="left">
									<feature> 27 </feature>
									<threshold> 9.572959 </threshold>
									<split pos="left">
										<feature> 3 </feature>
										<threshold> 2.7234352 </threshold>
										<split pos="left">
											<feature> 25 </feature>
											<threshold> 25.285461 </threshold>
											<split pos="left">
												<output> 9.6375315E-4 </output>
											</split>
											<split pos="right">
												<output> 0.79329187 </output>
											</split>
										</split>
										<split pos="right">
											<output> 0.5679477 </output>
										</split>
									</split>
									<split pos="right">
										<output> -0.16536473 </output>
									</split>
								</split>
								<split pos="right">
									<output> 0.46617374 </output>
								</split>
							</split>
							<split pos="right">
								<output> 0.057036813 </output>
							</split>
						</split>
						<split pos="right">
							<output> -0.12167467 </output>
						</split>
					</split>
					<split pos="right">
						<output> 0.42379463 </output>
					</split>
				</split>
				<split pos="right">
					<output> -0.12798099 </output>
				</split>
			</split>
			<split pos="right">
				<output> 1.504112 </output>
			</split>
		</split>
	</tree>
	<tree id="55" weight="0.1">
		<split>
			<feature> 33 </feature>
			<threshold> 0.99258614 </threshold>
			<split pos="left">
				<output> 0.02205744 </output>
			</split>
			<split pos="right">
				<feature> 33 </feature>
				<threshold> 0.99373734 </threshold>
				<split pos="left">
					<output> -0.06946465 </output>
				</split>
				<split pos="right">
					<feature> 2 </feature>
					<threshold> 5.317087 </threshold>
					<split pos="left">
						<feature> 6 </feature>
						<threshold> 584944.75 </threshold>
						<split pos="left">
							<feature> 10 </feature>
							<threshold> 3.2735748 </threshold>
							<split pos="left">
								<feature> 2 </feature>
								<threshold> 1.7329788 </threshold>
								<split pos="left">
									<feature> 15 </feature>
									<threshold> 14.392537 </threshold>
									<split pos="left">
										<feature> 21 </feature>
										<threshold> 10.671891 </threshold>
										<split pos="left">
											<feature> 29 </feature>
											<threshold> 7.9336567 </threshold>
											<split pos="left">
												<output> -0.0019366099 </output>
											</split>
											<split pos="right">
												<output> 0.2890436 </output>
											</split>
										</split>
										<split pos="right">
											<output> -0.19249913 </output>
										</split>
									</split>
									<split pos="right">
